0.011502057313919067
0.014377604238688946
-0.012682464905083179
0.005890605039894581
0.009148167446255684
0.030462700873613358
-0.006617475301027298
0.011940584518015385
0.000502870301716030
0.013173104263842106
0.024323852732777596
-0.009707375429570675
-0.008804460056126118
0.000361727026756853
0.001530750072561204
-0.007351286243647337
0.006468419916927814
0.005234302487224340
0.008881597779691219
-0.002729521831497550
-0.015822760760784149
0.004342090804129839
0.015523550100624561
-0.015591005794703960
0.007960973307490349
0.032918419688940048
0.023220574483275414
0.002318567596375942
0.025867491960525513
-0.021366287022829056
-0.033502217382192612
-0.005103331059217453
-0.018844185397028923
-0.030372511595487595
0.018435936421155930
-0.008387564681470394
0.018395086750388145
-0.010736073367297649
0.015517062507569790
0.007518642581999302
0.028231345117092133
-0.007539801765233278
0.012512853369116783
0.009435704909265041
0.014258026145398617
0.012463039718568325
-0.009290636517107487
0.007980444468557835
0.010649951174855232
0.005071419756859541
-0.005528291687369347
-0.007364638149738312
0.027985932305455208
-0.009788671508431435
0.012545798905193806
0.019339349120855331
-0.008293938823044300
0.010445801541209221
-0.009867782704532146
-0.014480471611022949
-0.009660557843744755
0.006569697055965662
-0.018765138462185860
0.013031712733209133
0.017830222845077515
0.002595985075458884
0.028946183621883392
0.011536752805113792
0.006599929649382830
0.010372941382229328
-0.007549237459897995
0.022054534405469894
-0.009693781845271587
0.021445667371153831
-0.010389820672571659
0.002821054309606552
0.018251368775963783
-0.001246994594112039
-0.031292121857404709
0.002815204672515392
-0.010851624421775341
-0.001792635302990675
0.005028923042118549
0.008051896467804909
0.002118038944900036
0.005965341348201036
0.017957914620637894
-0.005886071361601353
0.016932690516114235
-0.013694958761334419
-0.009106698445975780
0.005121057387441397
0.020694576203823090
-0.005239322315901518
-0.005704560317099094
-0.009096210822463036
-0.022874023765325546
0.023172423243522644
0.020464744418859482
0.016181448474526405
-0.011444407515227795
0.029071280732750893
0.026519468054175377
-0.005577717907726765
0.020092621445655823
-0.013819744810461998
0.010645345784723759
-0.009593830443918705
-0.004090673290193081
-0.016173206269741058
0.020107019692659378
-0.008574336767196655
-0.009357254952192307
0.014759215526282787
-0.010633360594511032
0.000319329905323684
0.019641758874058723
0.008237705565989017
0.006056122016161680
0.021755337715148926
-0.011177787557244301
0.039377566426992416
0.013529427349567413
-0.003748670453205705
-0.003418371314182878
-0.008341237902641296
0.019422547891736031
-0.026010163128376007
