-0.045622099190950394,0.036692541092634201,0.007299615070223808,0.016654843464493752,-0.000352677132468671,0.049101289361715317,0.003485959023237228,-0.059296421706676483,-0.014867253601551056,0.024245191365480423,0.038296408951282501,0.057532686740159988,0.003645925084128976,-0.041815165430307388,-0.038709007203578949,0.013719276525080204,-0.015207492746412754,0.040434058755636215,0.027147026732563972,-0.035935029387474060,-0.037157956510782242,0.039093136787414551,-0.001302898861467838,-0.059345517307519913,-0.031666688621044159,-0.007298315875232220,0.032151315361261368,0.034591075032949448,0.035506658256053925,-0.048174060881137848,0.012655782513320446,-0.009112512692809105,-0.061769939959049225,-0.024959823116660118,0.006768300198018551,0.026126738637685776,0.020160242915153503,0.033306073397397995,0.054692558944225311,0.004152369219809771,0.058362115174531937,-0.011575208976864815,-0.050040405243635178,-0.028376668691635132,0.002854265505447984,0.004248623736202717,-0.015854442492127419,-0.040613442659378052,0.010426388122141361,0.013530922122299671,-0.003042214317247272,-0.025642426684498787,0.051125694066286087,-0.017029367387294769,-0.029746932908892632,0.027984937652945518,-0.011352268047630787,-0.008517205715179443,-0.049505550414323807,0.038963120430707932,0.003240302205085754,0.040434811264276505,-0.054541047662496567,-0.036254957318305969,0.047434426844120026,-0.013021429069340229,-0.017676757648587227,0.024792868643999100,-0.029907405376434326,0.009343142621219158,0.024391202256083488,0.045010350644588470,-0.014388998970389366,0.016800651326775551,-0.018203197047114372,0.002203664742410183,0.032243691384792328,-0.054215498268604279,0.017535611987113953,-0.000268485717242584,-0.041290152817964554,0.037561111152172089,0.039637532085180283,-0.019997293129563332,0.024349087849259377,0.039680413901805878,0.023279961198568344,0.021053638309240341,-0.017335833981633186,-0.016907779499888420,0.016925578936934471,-0.007706800475716591,-0.009279885329306126,0.013985189609229565,0.032203465700149536,-0.057036291807889938,-0.010345598682761192,-0.010187881998717785,-0.000238840642850846,0.037066366523504257,-0.038842376321554184,0.068011328577995300,0.028293522074818611,-0.033326182514429092,-0.028583787381649017,-0.037531062960624695,-0.006785956211388111,-0.048908781260251999,-0.041886553168296814,0.040630131959915161,0.016957519575953484,-0.028802450746297836,0.016862194985151291,0.048218768090009689,0.003386207623407245,0.017462521791458130,0.027537941932678223,0.020024679601192474,0.005353739950805902,-0.009195408783853054,0.025509862229228020,0.068392753601074219,0.041169662028551102,0.013976904563605785,0.037205561995506287,-0.010731792077422142,-0.011324573308229446,0.028995398432016373
-0.014173788018524647,-0.029693378135561943,0.071172229945659637,0.020120553672313690,0.051606502383947372,-0.003010705113410950,-0.034096196293830872,-0.047452405095100403,-0.002490719314664602,-0.043961510062217712,0.005363644566386938,0.035717878490686417,-0.026337826624512672,0.013670922257006168,-0.020087212324142456,0.025656906887888908,0.017784273251891136,0.000790219055488706,0.016481487080454826,0.059280615299940109,-0.054072298109531403,0.009755853563547134,0.026306428015232086,-0.015020643360912800,-0.016469432041049004,0.022848710417747498,0.032801654189825058,0.034658148884773254,-0.000462918804259971,-0.060390748083591461,0.027826072648167610,-0.003473262302577496,-0.024194860830903053,-0.010578682646155357,0.016543161123991013,0.026016714051365852,0.011957408860325813,-0.043577466160058975,0.034003015607595444,-0.010516690090298653,0.049777168780565262,0.038590956479310989,0.011774016544222832,-0.016575669869780540,-0.070515602827072144,0.000848213501740247,0.000088945467723534,0.000216216154512949,0.010482122190296650,0.013122269883751869,-0.046438243240118027,0.030532164499163628,0.020263807848095894,-0.051294438540935516,-0.038551297038793564,0.053630195558071136,0.001729410607367754,-0.035800419747829437,-0.002854034071788192,0.030188780277967453,-0.028360307216644287,0.024170663207769394,0.034972950816154480,-0.070443324744701385,0.006319606676697731,-0.015897771343588829,0.060901518911123276,0.039804898202419281,-0.021208660677075386,-0.020533293485641479,0.026853686198592186,-0.018197894096374512,0.013610525988042355,0.060723464936017990,0.006091093178838491,0.035248827189207077,-0.025779891759157181,0.026882406324148178,0.077672451734542847,0.030235515907406807,0.038318704813718796,0.020077934488654137,-0.029647564515471458,0.038506601005792618,0.008691884577274323,-0.004088626708835363,0.096637286245822906,-0.049631882458925247,0.013985943049192429,-0.048084266483783722,-0.032130874693393707,-0.024022344499826431,0.093161612749099731,0.037190325558185577,-0.070894174277782440,0.027884585782885551,-0.048013426363468170,-0.008149917237460613,0.004566953051835299,0.044356502592563629,-0.000200900962227024,0.010477705858647823,-0.009357661008834839,-0.022237069904804230,0.025205798447132111,0.050276011228561401,0.015461307018995285,-0.014446259476244450,-0.068485952913761139,-0.014848102815449238,0.031093779951334000,-0.050338011234998703,0.017532944679260254,-0.034271296113729477,0.046681653708219528,-0.020639970898628235,0.001266150153242052,0.011926194652915001,-0.055307921022176743,0.008717460557818413,-0.019766720011830330,-0.006947520188987255,0.080157302320003510,0.019299132749438286,0.030487285926938057,-0.032929081469774246,-0.023084236308932304,0.022434977814555168
-0.028674731031060219,0.002540821209549904,0.039934054017066956,-0.054931439459323883,0.051224589347839355,0.039626020938158035,0.022419203072786331,-0.002449920633807778,-0.033116448670625687,0.013233474455773830,0.049031257629394531,0.037978913635015488,-0.035701371729373932,0.000083882645412814,-0.018876140937209129,0.001825205632485449,0.015475772321224213,-0.018819896504282951,0.018745357170701027,-0.024688046425580978,-0.009238178841769695,0.009051056578755379,0.038652334362268448,-0.000614919699728489,-0.028597822412848473,0.055565088987350464,0.013678493909537792,-0.005471839569509029,0.060066614300012589,-0.034512870013713837,-0.008158027194440365,-0.057247322052717209,-0.046090744435787201,-0.050241075456142426,-0.026151707395911217,-0.001827929168939590,-0.009657518938183784,-0.002896054647862911,0.021358575671911240,-0.028128417208790779,0.045025251805782318,-0.000146187841892242,-0.018304435536265373,-0.023952094838023186,-0.022145306691527367,-0.021456979215145111,-0.028777740895748138,-0.046282351016998291,0.046287573873996735,-0.001190112438052893,0.040582966059446335,-0.032441306859254837,0.014957422390580177,-0.004562951624393463,0.030239809304475784,-0.002831606660038233,0.034581828862428665,-0.006097597070038319,0.023973975330591202,-0.008153619244694710,0.030078496783971786,0.071466863155364990,-0.025076936930418015,-0.032032512128353119,0.031075421720743179,0.031645134091377258,0.049256648868322372,0.012413064949214458,-0.004470514599233866,-0.019258864223957062,0.009188961237668991,-0.020143881440162659,0.012446485459804535,0.022818502038717270,-0.022941282019019127,-0.012571988627314568,0.043574333190917969,0.010538295842707157,-0.026669574901461601,0.031724244356155396,-0.012366970069706440,0.017737897112965584,0.039910480380058289,-0.035884726792573929,-0.067154482007026672,-0.006435696035623550,0.065833285450935364,-0.038697898387908936,0.019484125077724457,-0.038454707711935043,0.007073484361171722,-0.028990583494305611,-0.008918663486838341,-0.054984033107757568,-0.031382095068693161,0.000314272940158844,-0.038910329341888428,0.004810111131519079,0.041483305394649506,-0.015785099938511848,0.030077077448368073,0.041837718337774277,0.047310899943113327,-0.015586841851472855,-0.004459291230887175,0.035963974893093109,0.025568235665559769,-0.008591614663600922,-0.005444561131298542,0.057368274778127670,-0.017890464514493942,0.017565462738275528,-0.022412169724702835,0.047022566199302673,0.050677824765443802,-0.044376172125339508,0.065649859607219696,0.020128613337874413,-0.066897764801979065,-0.007982384413480759,-0.024560797959566116,0.062665067613124847,0.039111331105232239,0.012798838317394257,-0.021055631339550018,0.044951628893613815,-0.006386594846844673,0.017800820991396904
-0.006099918391555548,-0.029697356745600700,0.047505620867013931,-0.002617741236463189,0.032689310610294342,0.016205279156565666,-0.039558924734592438,-0.002527398522943258,-0.043612316250801086,-0.013928552158176899,0.015402154065668583,-0.034767970442771912,0.002231799066066742,-0.028115367516875267,0.027779905125498772,-0.004871722310781479,-0.034988671541213989,-0.030256893485784531,-0.007357798051089048,-0.008882987312972546,-0.011378462426364422,0.032343275845050812,-0.041926562786102295,-0.020082660019397736,0.001466508605517447,-0.025105964392423630,-0.000718154886271805,0.007305864244699478,0.019220057874917984,0.020386172458529472,0.034178078174591064,-0.004709148779511452,-0.005051962099969387,-0.050613570958375931,0.039244454354047775,0.052146356552839279,0.038877151906490326,-0.005144803784787655,-0.017154265195131302,0.005816330201923847,-0.018622433766722679,0.005068160593509674,0.048532329499721527,-0.011037866584956646,-0.027812840417027473,0.024166934192180634,-0.005377460271120071,-0.012872453778982162,-0.011907136067748070,0.011949127539992332,-0.014806367456912994,0.052302848547697067,-0.033611841499805450,-0.003291368484497070,-0.038606341928243637,0.052239939570426941,0.012713495641946793,-0.039074931293725967,-0.039819717407226562,-0.013370752334594727,-0.030121458694338799,0.036123022437095642,-0.029374821111559868,-0.065805748105049133,0.006484355311840773,0.016822440549731255,0.033377312123775482,0.030417583882808685,-0.033149257302284241,-0.027265937998890877,0.018767151981592178,0.022660298272967339,-0.046322882175445557,0.018908845260739326,-0.026697510853409767,0.051304243505001068,0.012483639642596245,0.057098798453807831,-0.002854905789718032,0.021640432998538017,0.031371016055345535,-0.004097084514796734,0.044348511844873428,0.010832078754901886,-0.045716620981693268,0.050372481346130371,0.045953556895256042,0.002416718751192093,0.054013986140489578,0.030217302963137627,0.022072616964578629,-0.010127255693078041,0.058959342539310455,-0.029802290722727776,-0.041942473500967026,0.045484673231840134,-0.060458693653345108,-0.005135144572705030,0.038207665085792542,0.037953034043312073,0.014699741266667843,-0.012030084617435932,0.050709038972854614,-0.023018527776002884,-0.019822370260953903,0.005428363103419542,-0.033565651625394821,0.048236932605504990,0.012185501866042614,-0.007849650457501411,0.037152267992496490,0.033003631979227066,-0.004818391054868698,0.005842301063239574,0.044599808752536774,0.046232599765062332,-0.000809770834166557,0.040122337639331818,-0.020210057497024536,0.004802971147000790,-0.019940888509154320,0.061751976609230042,0.045303437858819962,-0.004736416041851044,0.014416794292628765,0.028323482722043991,0.037184022367000580,0.034554798156023026
-0.028816230595111847,-0.024454863741993904,0.004185842350125313,0.035406641662120819,-0.020363923162221909,-0.019231844693422318,-0.023636056110262871,-0.080208182334899902,-0.024760810658335686,0.027860207483172417,-0.043903108686208725,0.036630779504776001,0.022596724331378937,0.004151471424847841,-0.027093311771750450,0.058532577008008957,-0.019744489341974258,-0.042499121278524399,0.046025086194276810,0.038030315190553665,-0.034462504088878632,0.050285223871469498,0.047919336706399918,-0.010228944011032581,-0.011002032086253166,0.068058356642723083,-0.047661893069744110,0.018250294029712677,0.060421399772167206,0.034790188074111938,-0.008160795085132122,-0.032170828431844711,0.049803748726844788,-0.037461325526237488,-0.008611848577857018,0.017912441864609718,-0.036562435328960419,-0.043963834643363953,0.025096382945775986,-0.006465907674282789,0.092814870178699493,-0.025239739567041397,0.015768975019454956,0.038290847092866898,-0.001018656650558114,-0.029404178261756897,-0.015422790311276913,-0.015397431328892708,0.015413424931466579,0.071187235414981842,-0.018038837239146233,-0.058558937162160873,-0.001001000520773232,-0.014170758426189423,-0.024122506380081177,-0.025564193725585938,-0.031316220760345459,0.029855284839868546,0.010021942667663097,-0.047607265412807465,-0.000746285193599761,0.074088230729103088,-0.006903224624693394,-0.052640471607446671,0.003746920498088002,-0.005400080233812332,0.077480733394622803,0.020290238782763481,-0.009619749151170254,-0.048710264265537262,-0.037441488355398178,0.060416072607040405,-0.022287232801318169,0.000015052763046697,0.020223380997776985,-0.012084319256246090,-0.002125621074810624,-0.033487487584352493,0.029785256832838058,0.050220951437950134,0.071230560541152954,0.054338231682777405,0.023835489526391029,0.036444615572690964,0.000596840283833444,-0.030339755117893219,0.018863242119550705,0.023976240307092667,-0.026339074596762657,-0.001101876841858029,-0.033614680171012878,-0.062309894710779190,0.044259935617446899,-0.015161634422838688,0.003800063626840711,0.015124963596463203,-0.007606630679219961,-0.024352643638849258,0.016373164951801300,0.021407390013337135,-0.020432140678167343,0.046402357518672943,-0.030095975846052170,0.005285999737679958,-0.035481184720993042,0.057504322379827499,-0.030982086434960365,0.020747678354382515,0.026763586327433586,0.007639484014362097,-0.030194349586963654,0.020645052194595337,-0.036341253668069839,0.002628373214974999,-0.006496752146631479,-0.004624661523848772,-0.022900026291608810,0.035432718694210052,-0.027620708569884300,0.044660367071628571,-0.023468010127544403,-0.000210720972972922,0.049250118434429169,0.014241246506571770,-0.005695800762623549,-0.057013150304555893,0.035183761268854141,0.044583741575479507
0.010688552632927895,-0.065899156033992767,0.077129952609539032,0.027757683768868446,0.017018930986523628,-0.032929539680480957,-0.045400641858577728,-0.012076710350811481,-0.012040686793625355,-0.024751370772719383,-0.006027405150234699,0.060024779289960861,-0.038129549473524094,-0.002720138989388943,0.026156013831496239,-0.026509890332818031,-0.087283238768577576,-0.037036862224340439,0.049562789499759674,0.026077575981616974,-0.011225259862840176,0.028264530003070831,0.017152551561594009,-0.034098822623491287,-0.053873222321271896,0.050807327032089233,-0.013340295292437077,0.069748036563396454,0.072926826775074005,0.067327387630939484,0.003426137845963240,-0.091043807566165924,0.033425752073526382,-0.055943109095096588,-0.011329403147101402,0.089567460119724274,0.001027635531499982,0.004726861603558064,-0.011815100908279419,-0.050293408334255219,0.072817146778106689,0.013210782781243324,-0.013021084479987621,0.002676222473382950,0.006724763661623001,-0.007542578037828207,0.013082657940685749,-0.077120907604694366,-0.011011006310582161,0.032617632299661636,-0.051846280694007874,-0.055041249841451645,0.002844931557774544,-0.040889218449592590,0.001704948255792260,0.018210353329777718,-0.040014784783124924,0.004549335688352585,-0.008638186380267143,-0.060783624649047852,0.028983641415834427,0.044540151953697205,0.035784255713224411,-0.003604175755754113,-0.024330617859959602,0.039245732128620148,-0.000378720142180100,-0.004697143100202084,0.034924134612083435,0.009453554637730122,-0.004707884509116411,0.018644222989678383,0.009302425198256969,0.035366907715797424,-0.046945370733737946,-0.022012462839484215,0.043128386139869690,-0.016290087252855301,0.041187174618244171,0.032210804522037506,0.069561332464218140,0.007921962998807430,-0.007542976178228855,0.033960152417421341,0.026895944029092789,0.058989677578210831,0.041011836379766464,-0.032847814261913300,-0.018400140106678009,-0.031766790896654129,-0.041382126510143280,-0.075030073523521423,-0.009144876152276993,0.015766663476824760,-0.020971477031707764,0.041059993207454681,-0.027056775987148285,-0.032812394201755524,-0.012309344485402107,0.048349041491746902,0.029299542307853699,0.046123296022415161,-0.058957871049642563,-0.007945612072944641,-0.011678894050419331,-0.012369685806334019,0.017353070899844170,-0.038304332643747330,-0.015218080952763557,0.067734412848949432,-0.028562173247337341,0.021251078695058823,-0.007352474611252546,0.058229923248291016,0.017397224903106689,-0.035897675901651382,0.004106781911104918,-0.005703567527234554,-0.069757834076881409,0.010350356809794903,-0.023575410246849060,0.032463096082210541,0.078285984694957733,0.021976016461849213,-0.037749342620372772,0.015199415385723114,-0.036757338792085648,0.039470184594392776
-0.016770755872130394,0.002517880173400044,0.034325305372476578,0.011183708906173706,0.012119783088564873,-0.044708974659442902,-0.020263051614165306,-0.062104146927595139,-0.043481897562742233,-0.018993267789483070,-0.010393185541033745,-0.000124859725474380,0.048136804252862930,0.030555298551917076,0.045133948326110840,-0.015150710940361023,-0.035335443913936615,0.029984811320900917,-0.035522259771823883,-0.007395561784505844,0.018986742943525314,-0.013640113174915314,0.014748472720384598,0.008497620001435280,-0.006664152257144451,0.002155552385374904,-0.054700013250112534,0.040858659893274307,-0.025317821651697159,-0.016768947243690491,-0.012518935836851597,-0.048780154436826706,0.009866905398666859,-0.087695911526679993,0.054028525948524475,0.042743820697069168,0.004899959079921246,-0.057721726596355438,-0.042149480432271957,-0.068106032907962799,0.078199811279773712,0.021192047744989395,-0.079900912940502167,0.013015005737543106,-0.031153833493590355,-0.001671153702773154,-0.006707232911139727,-0.065705895423889160,0.004528847523033619,0.057561114430427551,0.016950812190771103,-0.052769985049962997,0.010809907689690590,-0.027900649234652519,-0.054072733968496323,-0.031600933521986008,-0.036046005785465240,-0.013356673531234264,0.024831388145685196,-0.005323795136064291,-0.015458434820175171,-0.009103263728320599,0.046835120767354965,-0.042048182338476181,0.009412946179509163,0.061894007027149200,0.010006085038185120,-0.003060029121115804,0.005140705034136772,0.014969395473599434,0.028847608715295792,-0.023978151381015778,0.022956764325499535,0.050513375550508499,-0.013287630863487720,0.028200136497616768,0.042277473956346512,-0.045781452208757401,-0.000345981999998912,0.051356900483369827,0.061183735728263855,0.031021097674965858,0.046104926615953445,0.001446578768081963,0.022661983966827393,0.015532457269728184,-0.000576624704990536,-0.037262499332427979,0.027906788513064384,-0.021565694361925125,0.008895851671695709,-0.020365107804536819,-0.043164495378732681,-0.033369548618793488,-0.036775171756744385,-0.014409493654966354,-0.028211826458573341,0.026698913425207138,0.000619916943833232,0.003682001726701856,0.051588516682386398,0.047380350530147552,-0.028355181217193604,0.014158342033624649,0.021269617602229118,-0.004761869553476572,-0.078715473413467407,-0.028256872668862343,0.022451847791671753,-0.009511254727840424,0.006795254070311785,-0.041942249983549118,-0.006548555102199316,0.008602535352110863,0.006447665859013796,0.033695913851261139,-0.051878537982702255,-0.022598158568143845,-0.058752454817295074,-0.041286211460828781,0.041362013667821884,-0.015422394499182701,-0.002734020119532943,0.065017461776733398,-0.030129512771964073,-0.034237850457429886,-0.041717410087585449,-0.041316255927085876
-0.000681667006574571,-0.006268744822591543,0.066825807094573975,-0.016980193555355072,0.019288085401058197,-0.019556595012545586,-0.044338297098875046,-0.006521611474454403,0.001149965450167656,0.041937988251447678,0.067673787474632263,0.086337387561798096,-0.040012132376432419,-0.001166602014563978,-0.026622934266924858,0.020191393792629242,0.012286519631743431,0.035594157874584198,-0.071195326745510101,0.065479911863803864,0.003065633121877909,-0.001911184983327985,-0.030121289193630219,-0.026383247226476669,0.022626779973506927,-0.003683373564854264,-0.038059733808040619,0.029196977615356445,0.043276388198137283,-0.006136485841125250,-0.013275174424052238,-0.077254317700862885,0.031068660318851471,0.000147726794239134,0.012112453579902649,0.004538619890809059,-0.053349677473306656,-0.006122272461652756,0.030279818922281265,-0.071422263979911804,0.001824831007979810,-0.043957140296697617,0.000494719541165978,-0.007953860796988010,-0.057791162282228470,-0.054002732038497925,-0.009756673127412796,-0.061402082443237305,0.013924612663686275,0.016539353877305984,-0.008285451680421829,0.007579892873764038,-0.042899865657091141,0.040196906775236130,0.000170320490724407,0.060717936605215073,0.041277412325143814,-0.058761417865753174,0.019711140543222427,0.004552872851490974,-0.048391964286565781,0.057191677391529083,-0.012568504549562931,-0.021672807633876801,0.051847327500581741,-0.008520063944160938,-0.023193031549453735,0.002062117680907249,-0.032059758901596069,0.001653062645345926,-0.006295226514339447,0.079743705689907074,0.016550626605749130,0.015037619508802891,-0.015709873288869858,0.045686941593885422,0.050914064049720764,0.034334301948547363,0.046614654362201691,0.022285565733909607,0.062229402363300323,0.038603287190198898,-0.008796414360404015,0.034878965467214584,-0.028240105137228966,0.011982759460806847,-0.045558232814073563,-0.017115723341703415,-0.014997829683125019,-0.014663764275610447,-0.035516608506441116,-0.056905541568994522,0.032535899430513382,0.036763347685337067,-0.010505232028663158,0.036778617650270462,-0.030043620616197586,-0.009184301830828190,-0.048288069665431976,0.021682253107428551,0.041064716875553131,0.025120256468653679,-0.032355584204196930,0.028835821896791458,-0.056503325700759888,-0.072776623070240021,0.016960831359028816,-0.033307097852230072,-0.000939195859245956,0.036818202584981918,0.054708734154701233,-0.026607383042573929,-0.012328337877988815,0.036091197282075882,-0.025594564154744148,-0.070481739938259125,0.042436368763446808,-0.022095002233982086,-0.026542721316218376,-0.051195356994867325,-0.043447759002447128,0.029737990349531174,0.041646201163530350,0.023808998987078667,-0.008962482213973999,-0.009499989449977875,0.024305701255798340,0.029152585193514824
-0.020084884017705917,-0.068768702447414398,-0.017663668841123581,0.006479510106146336,0.000956132484134287,0.047043558210134506,-0.053501419723033905,-0.058253604918718338,-0.031285397708415985,0.019360125064849854,-0.046592734754085541,-0.015821024775505066,0.032236397266387939,0.041150368750095367,0.037714105099439621,0.012600319460034370,-0.025797264650464058,-0.005561695434153080,-0.045834764838218689,0.006128714885562658,0.048099678009748459,0.009992280043661594,0.048381965607404709,0.026169611141085625,0.054233793169260025,0.025453068315982819,-0.030092837288975716,0.000464525277493522,-0.026241317391395569,0.008520141243934631,0.027340473607182503,-0.068864658474922180,0.046713892370462418,-0.061871487647294998,-0.051181294023990631,-0.013277669437229633,-0.017037341371178627,-0.042350109666585922,-0.029443245381116867,-0.073167443275451660,-0.030186638236045837,-0.016844449564814568,0.024375692009925842,-0.029725471511483192,-0.066777057945728302,-0.062482368201017380,0.006253717467188835,-0.062814995646476746,0.014584127813577652,0.007359720300883055,-0.007054643239825964,-0.029937621206045151,0.006141880992799997,0.034966982901096344,0.026326166465878487,0.059149671345949173,0.014033881016075611,-0.052014485001564026,0.012113005854189396,-0.052632857114076614,0.007340213749557734,0.016522256657481194,0.014398040249943733,0.040481455624103546,-0.018851751461625099,0.058204676955938339,0.018842183053493500,0.026091929525136948,0.050257261842489243,0.005771927069872618,0.003968451637774706,-0.026497108861804008,-0.000707359868101776,-0.030552316457033157,0.068975597620010376,-0.057809285819530487,0.039898388087749481,0.030086973682045937,0.056532137095928192,0.000532663310877979,-0.021905060857534409,0.033861797302961349,-0.025954866781830788,0.013810061849653721,-0.024562191218137741,0.053545337170362473,0.039482269436120987,-0.037960499525070190,-0.026877986267209053,0.020457388833165169,0.024255868047475815,0.023122567683458328,-0.059788797050714493,-0.008150408975780010,-0.052714392542839050,0.024434516206383705,0.052472420036792755,0.028809687122702599,0.052034024149179459,-0.011056261137127876,0.037706788629293442,0.012242939323186874,-0.018231611698865891,-0.016073433682322502,-0.010416978970170021,-0.015743562951683998,-0.038868524134159088,-0.012813798151910305,0.000429854524554685,0.015198286622762680,0.052747741341590881,-0.046575240790843964,-0.007107387762516737,-0.026315335184335709,0.004176932852715254,-0.028025574982166290,-0.001589757157489657,0.003600826719775796,-0.051243662834167480,-0.007166323252022266,0.056706704199314117,-0.016232432797551155,0.017902743071317673,-0.003834309987723827,-0.030327500775456429,-0.000670206150971353,-0.003156944643706083,0.014164827764034271
-0.015794934704899788,-0.034205742180347443,0.083502620458602905,0.081974685192108154,0.014217847958207130,-0.025663902983069420,-0.027508903294801712,-0.035040441900491714,0.056785415858030319,0.018504256382584572,0.019510557875037193,-0.003313903464004397,-0.054298181086778641,0.017164856195449829,-0.003761081723496318,-0.004990301560610533,-0.064676195383071899,0.030537748709321022,0.031851213425397873,0.018029568716883659,0.010113234631717205,-0.021526396274566650,0.058624595403671265,0.020814435556530952,-0.016286967322230339,-0.005315581336617470,-0.036447878926992416,0.056856077164411545,0.021926349028944969,0.042581759393215179,-0.003507469780743122,-0.047265104949474335,0.072895109653472900,0.008382488973438740,-0.021012326702475548,0.012677265331149101,0.037787128239870071,-0.018977344036102295,-0.033957317471504211,-0.075346775352954865,0.001901876297779381,-0.035210631787776947,-0.049301330000162125,0.010689826682209969,-0.088760346174240112,-0.004641023464500904,0.067819096148014069,-0.051926821470260620,-0.028525691479444504,0.012778816744685173,-0.009173616766929626,0.000970796623732895,-0.075272552669048309,-0.023066464811563492,-0.057999864220619202,0.024943910539150238,0.042123064398765564,-0.088172361254692078,-0.054309226572513580,-0.016301218420267105,0.022319614887237549,0.043749473989009857,0.028223000466823578,-0.033612985163927078,0.030868543311953545,0.079645529389381409,0.026512151584029198,0.056323010474443436,0.044299002736806870,0.024894069880247116,-0.011108253151178360,0.069041907787322998,0.036263540387153625,-0.017553063109517097,0.005005145445466042,-0.037753153592348099,0.051674354821443558,0.016487875953316689,0.045986779034137726,0.053053084760904312,-0.001690827426500618,0.004594963509589434,0.000731350795831531,-0.000470081227831542,0.033648915588855743,0.027260031551122665,-0.036996018141508102,0.017857370898127556,-0.039666920900344849,-0.047909792512655258,-0.022253908216953278,-0.033438362181186676,-0.014864176511764526,0.008258174173533916,0.020861856639385223,-0.019373264163732529,0.059557668864727020,0.020419903099536896,0.064342007040977478,0.059861417859792709,0.060275308787822723,0.078796721994876862,-0.070518888533115387,0.012193904258310795,0.008899493142962456,0.026102306321263313,-0.014136753976345062,0.005797501187771559,0.027220297604799271,0.065124422311782837,0.018447645008563995,0.012082015164196491,-0.050594598054885864,0.047727830708026886,0.026536677032709122,0.012909444980323315,-0.041729677468538284,0.022962676361203194,-0.069739535450935364,-0.023645590990781784,0.002363770967349410,0.051536347717046738,0.031043989583849907,0.081573590636253357,0.026338845491409302,-0.038127031177282333,0.028085561469197273,0.042018093168735504
-0.056073747575283051,-0.021147534251213074,0.067026183009147644,-0.009899729862809181,0.009435737505555153,0.023683039471507072,-0.039692230522632599,-0.046634081751108170,-0.029987016692757607,-0.006029991433024406,-0.084864601492881775,0.014219577424228191,0.025112245231866837,-0.001096767140552402,0.024757973849773407,-0.022044310346245766,-0.019038170576095581,-0.005151517689228058,-0.043262436985969543,0.045781198889017105,0.026828994974493980,0.001118857297115028,-0.021155849099159241,-0.021623119711875916,0.027821484953165054,0.080062337219715118,-0.096089400351047516,-0.016652483493089676,0.009009419009089470,0.074500769376754761,0.029548954218626022,-0.052269369363784790,0.075647443532943726,-0.056360665708780289,-0.011589111760258675,-0.001799701247364283,-0.038633465766906738,-0.077440522611141205,0.024180170148611069,-0.035935893654823303,-0.011675433255732059,-0.030388599261641502,-0.035443879663944244,-0.003814014839008451,-0.100457452237606049,-0.062131486833095551,0.058146160095930099,0.021660301834344864,0.009931579232215881,0.063009724020957947,-0.011767961084842682,-0.005099476780742407,-0.068870536983013153,-0.021087795495986938,-0.035016424953937531,-0.016647700220346451,0.040208909660577774,-0.052747603505849838,-0.036077987402677536,-0.034804705530405045,0.031735800206661224,0.003234898904338479,0.001947046839632094,0.054198648780584335,-0.010247119702398777,0.049031738191843033,0.053023919463157654,0.045767225325107574,0.009144227951765060,0.028079168871045113,-0.026106500998139381,-0.043253146111965179,0.009834736585617065,0.039091601967811584,0.025736702606081963,-0.064886249601840973,-0.039430245757102966,0.014038714580237865,0.007072071079164743,0.025317935273051262,-0.006866060197353363,0.020108101889491081,-0.042252808809280396,0.001573251094669104,-0.033841568976640701,0.054501473903656006,0.066088803112506866,0.037418331950902939,-0.104111656546592712,0.011675506830215454,-0.001306869788095355,-0.007625129539519548,-0.025256089866161346,0.006429725326597691,-0.020092761144042015,-0.004439271986484528,0.034954123198986053,0.014860619790852070,-0.027232280001044273,-0.010340901091694832,0.039345923811197281,0.001609446597285569,-0.073672145605087280,0.048428643494844437,0.023747514933347702,-0.022071616724133492,-0.034504108130931854,0.017401307821273804,0.006053219549357891,-0.002411260735243559,0.054908543825149536,-0.045003879815340042,-0.013867327943444252,0.014816965907812119,-0.019631430506706238,0.001532876864075661,0.029990935698151588,0.033699434250593185,-0.032910462468862534,-0.063005521893501282,0.020351225510239601,0.024618450552225113,0.021849798038601875,0.022236015647649765,0.020693812519311905,-0.002031408250331879,0.004143270198255777,0.010867988690733910
0.029663356021046638,0.032175324857234955,0.003973606508225203,0.018086593598127365,-0.073604725301265717,-0.050119496881961823,-0.024846589192748070,0.033768258988857269,-0.011830629780888557,0.057286150753498077,-0.063085734844207764,0.058990340679883957,-0.045636929571628571,0.070617161691188812,-0.030021118000149727,-0.018327919766306877,-0.018029721453785896,-0.002447976265102625,-0.029621819034218788,0.065946117043495178,0.010007404722273350,0.013131072744727135,-0.047629315406084061,0.043063044548034668,-0.048781804740428925,-0.008747918531298637,-0.039318919181823730,0.014231535606086254,0.020374504849314690,0.005046909209340811,0.023813461884856224,-0.010406315326690674,0.019484674558043480,0.016414416953921318,-0.002953610150143504,0.085641466081142426,0.018153946846723557,-0.078788101673126221,-0.036557227373123169,-0.075093388557434082,0.011361192911863327,0.040393147617578506,-0.022647047415375710,-0.046472147107124329,-0.078833110630512238,-0.027572063729166985,-0.034564130008220673,-0.048028737306594849,0.037283223122358322,-0.048104431480169296,-0.011594999581575394,-0.020739287137985229,-0.031230542808771133,-0.038173582404851913,-0.079263366758823395,-0.009681247174739838,-0.042223978787660599,-0.064257852733135223,-0.007013164460659027,-0.024158643558621407,0.044863328337669373,0.036109786480665207,0.045512195676565170,-0.024277774617075920,-0.010222416371107101,0.062637180089950562,0.007622365839779377,0.061556566506624222,-0.019757950678467751,-0.000109671142126899,0.010877549648284912,-0.011831200681626797,0.020566090941429138,-0.052979350090026855,-0.017423257231712341,-0.028447244316339493,0.026273217052221298,-0.066109091043472290,-0.002352621173486114,-0.001722882385365665,0.031224843114614487,-0.015552942641079426,-0.049904000014066696,-0.042953789234161377,0.010816561058163643,0.018158918246626854,-0.000113075584522448,-0.046512689441442490,-0.019830839708447456,0.019996792078018188,-0.024585306644439697,-0.024512100964784622,-0.005316841881722212,-0.024140642955899239,-0.059737253934144974,-0.045993853360414505,0.002299481770023704,0.035509500652551651,0.034729812294244766,0.076749481260776520,0.061273630708456039,-0.013623820617794991,-0.064871013164520264,0.033321406692266464,-0.030325943604111671,-0.014538202434778214,-0.054632589221000671,-0.030057141557335854,-0.051497314125299454,0.027198052033782005,0.017735062167048454,-0.034562028944492340,-0.023047465831041336,-0.023691132664680481,-0.033674363046884537,0.004928545560687780,0.038042079657316208,-0.056825339794158936,-0.021492835134267807,-0.037614710628986359,0.044494628906250000,-0.010998109355568886,0.014714872464537621,0.077482029795646667,-0.043426956981420517,-0.038543891161680222,-0.008606164716184139,0.036917869001626968
-0.012393008917570114,-0.017689004540443420,0.035595230758190155,0.059586353600025177,0.004413189832121134,0.020230492576956749,-0.025918025523424149,-0.006009956356137991,0.000539737928193063,-0.031409975141286850,-0.077693939208984375,-0.010681301355361938,-0.018991060554981232,0.030740933492779732,0.004253637511283159,0.045228522270917892,0.043499533087015152,0.014619193039834499,0.012930134311318398,-0.021990444511175156,0.017337219789624214,0.001592078013345599,0.039981830865144730,0.002261021174490452,0.043860301375389099,0.010019772686064243,0.030272390693426132,-0.001381168724037707,0.025247503072023392,0.005812262184917927,0.033771712332963943,0.013924879953265190,-0.022394087165594101,0.010935449972748756,-0.045236345380544662,0.006199633236974478,-0.046403281390666962,-0.076020523905754089,-0.025202313438057899,-0.004833244718611240,-0.039676275104284286,0.007580773904919624,-0.030031256377696991,0.008326053619384766,-0.067643947899341583,-0.054443158209323883,0.083964511752128601,-0.001379288267344236,0.052043851464986801,0.033467017114162445,-0.002798978937789798,-0.017907146364450455,-0.076256081461906433,0.005278143100440502,0.010604856535792351,0.072181858122348785,0.016743674874305725,-0.007031421642750502,-0.042538415640592575,-0.037309717386960983,-0.006272997707128525,0.055459450930356979,-0.008789075538516045,-0.009348019026219845,-0.027842486277222633,-0.035234842449426651,-0.024400440976023674,0.025595670565962791,-0.044321157038211823,0.007958345115184784,-0.027564246207475662,0.065271139144897461,-0.030446274206042290,-0.064085960388183594,0.039025940001010895,-0.055176846683025360,-0.005680895876139402,-0.037615604698657990,0.048878684639930725,0.034010548144578934,0.051863007247447968,0.070324644446372986,-0.067433804273605347,-0.052918206900358200,0.006201982032507658,0.062089331448078156,0.034092478454113007,-0.001846165861934423,-0.013651505112648010,-0.019989471882581711,-0.004427029285579920,0.072091266512870789,-0.038458824157714844,0.013996353372931480,-0.008157088421285152,0.037120882421731949,0.051860589534044266,0.028944922611117363,-0.059911035001277924,0.059126291424036026,0.041885543614625931,-0.007124998141080141,0.011863458901643753,-0.014523565769195557,0.015943394973874092,0.001248247805051506,-0.052656605839729309,0.035925973206758499,-0.010385622270405293,0.045724432915449142,0.057485464960336685,-0.025713436305522919,-0.025811806321144104,0.063124060630798340,-0.017889861017465591,-0.052204307168722153,-0.032577060163021088,-0.005591002292931080,-0.004263067152351141,0.021480595692992210,-0.024291526526212692,-0.036829307675361633,-0.021548623219132423,-0.014251955784857273,-0.038729187101125717,0.006822455208748579,-0.040055207908153534,-0.022989662364125252
0.050763655453920364,-0.010550129227340221,0.033614207059144974,0.014960399828851223,-0.027068495750427246,-0.020679611712694168,0.001490025664679706,-0.028597930446267128,0.004734576214104891,-0.002347684931010008,0.007325205020606518,0.021881127730011940,-0.038866262882947922,0.026913361623883247,0.030869329348206520,0.024741027504205704,0.017528319731354713,-0.014740644022822380,0.011412828229367733,0.013503280468285084,0.026086362078785896,0.008543981239199638,-0.013351614587008953,0.060411110520362854,0.030476765707135201,-0.027433622628450394,0.017153946682810783,0.055898934602737427,0.036940149962902069,0.070613868534564972,0.065045520663261414,-0.079145796597003937,0.069376781582832336,-0.007270319387316704,-0.050893802195787430,-0.009370136074721813,-0.008989702910184860,-0.084097832441329956,-0.028645705431699753,-0.036712359637022018,0.036243207752704620,-0.019554426893591881,-0.008556191809475422,0.021782305091619492,-0.075589828193187714,-0.024830926209688187,0.055844157934188843,0.027854852378368378,0.019264131784439087,-0.009397927671670914,-0.039623476564884186,-0.032711446285247803,-0.054495822638273239,-0.046952977776527405,0.011002594605088234,0.066632881760597229,-0.012910025194287300,-0.047527685761451721,-0.014305611141026020,-0.016137560829520226,-0.051515314728021622,0.037295445799827576,-0.017849760130047798,0.007753435987979174,0.026298731565475464,0.001098058768548071,0.009353519417345524,-0.017033755779266357,0.038121752440929413,-0.016139218583703041,-0.005529366899281740,-0.019088581204414368,0.037258643656969070,-0.047369971871376038,0.055642813444137573,0.016368452459573746,0.035644460469484329,0.002943377941846848,-0.017410891130566597,0.029651606455445290,0.066667184233665466,0.062022298574447632,0.005607961677014828,0.017527272924780846,0.014414358884096146,-0.007228713482618332,-0.017188424244523048,0.024665584787726402,-0.029108731076121330,-0.014283197000622749,-0.036688145250082016,-0.003219013102352619,-0.013163628987967968,-0.002710662782192230,-0.060966327786445618,0.021670306101441383,0.035936962813138962,-0.002953082788735628,0.039342265576124191,0.017540207132697105,0.065645039081573486,0.015755647793412209,-0.042500067502260208,0.044312663376331329,0.006071506533771753,0.036429371684789658,0.007652925327420235,0.015170220285654068,-0.067234143614768982,0.026625687256455421,0.038844097405672073,-0.005555026233196259,-0.055923733860254288,0.017464436590671539,-0.052472978830337524,0.019383164122700691,-0.004238790366798639,-0.066748782992362976,-0.012380003929138184,-0.025972386822104454,-0.039711590856313705,0.031660068780183792,-0.044437136501073837,0.044499751180410385,0.022583523765206337,0.003158369567245245,0.005445806775242090,0.000399189855670556
-0.008389145135879517,-0.102840863168239594,0.045034356415271759,-0.009259982965886593,-0.087583847343921661,-0.026941401883959770,-0.024951631203293800,-0.080215588212013245,-0.031040970236063004,0.032598879188299179,-0.081221573054790497,0.044274285435676575,0.047683309763669968,0.045568402856588364,0.027063945308327675,-0.020615540444850922,0.035632535815238953,-0.020137140527367592,-0.004248722456395626,0.032750822603702545,-0.012217037379741669,0.044985283166170120,0.033705104142427444,0.058122217655181885,-0.026079723611474037,-0.021914569661021233,-0.068212106823921204,-0.015132392756640911,0.001739922561682761,0.047699637711048126,0.040264204144477844,-0.030061317607760429,0.033746030181646347,-0.004295030143111944,-0.039439778774976730,0.046489380300045013,0.002133058384060860,-0.067850947380065918,-0.057976089417934418,-0.016664402559399605,-0.045290540903806686,0.015991877764463425,-0.044311430305242538,-0.032705277204513550,-0.107509948313236237,-0.019966967403888702,0.081646323204040527,0.005416721105575562,-0.008957814425230026,-0.023754946887493134,0.047544907778501511,0.028439523652195930,-0.051273822784423828,-0.016838451847434044,0.023324839770793915,-0.016539735719561577,-0.016159318387508392,-0.033643543720245361,-0.025998616591095924,-0.060710418969392776,-0.011241159401834011,0.059330746531486511,0.042584538459777832,0.035008072853088379,-0.041081074625253677,0.005842571146786213,-0.010282728821039200,-0.031104540452361107,-0.007065766956657171,0.047620020806789398,-0.028761161491274834,-0.028199972584843636,0.035824265331029892,-0.041220113635063171,0.055205453187227249,0.010456379503011703,0.031686455011367798,-0.013471596874296665,0.044166956096887589,0.026001214981079102,-0.011461072601377964,0.021801026538014412,0.022889677435159683,-0.005432049278169870,-0.044681321829557419,0.010955756530165672,0.002996365306898952,0.012381635606288910,0.003310530912131071,0.015933709219098091,0.028270838782191277,0.029909651726484299,0.004188966937363148,0.047143004834651947,-0.018760509788990021,0.030986163765192032,0.027866782620549202,0.035901892930269241,-0.053234715014696121,-0.027646353468298912,-0.024819273501634598,0.031260967254638672,0.016380812972784042,-0.011453140527009964,0.033588286489248276,0.040013886988162994,0.005859837867319584,0.047399044036865234,0.009693187661468983,0.056987907737493515,-0.019193531945347786,0.005303308833390474,-0.022475760430097580,0.005160982254892588,0.033237673342227936,0.024649076163768768,0.028238659724593163,-0.013382750563323498,0.015171926468610764,-0.025539843365550041,0.039173819124698639,0.036068577319383621,-0.059831589460372925,0.006002802401781082,0.040540516376495361,0.004209198057651520,-0.002940327161923051,0.000284559791907668
0.029491692781448364,0.017143992707133293,-0.014845932833850384,0.025454321876168251,-0.022717518731951714,0.004249123390763998,-0.018036413937807083,0.031283583492040634,0.017389800399541855,0.056061860173940659,-0.063082881271839142,-0.011377413757145405,0.010351859033107758,0.096592813730239868,0.034147731959819794,-0.000529897108208388,-0.033100005239248276,-0.022100627422332764,-0.006483071949332952,0.008486178703606129,-0.006554055493324995,0.039977051317691803,-0.031009143218398094,0.022274164482951164,0.035721410065889359,0.002933062845841050,0.021932927891612053,0.053489495068788528,0.003895728383213282,0.031352531164884567,-0.000728447688743472,-0.037617798894643784,-0.006835632026195526,0.002236500382423401,-0.050939083099365234,0.051756773144006729,-0.016786813735961914,-0.070287287235260010,-0.055270083248615265,-0.075957417488098145,-0.026292214170098305,0.013901498168706894,-0.030207872390747070,0.028679305687546730,-0.108123116195201874,-0.074276112020015717,0.023376088589429855,0.035136666148900986,0.006199288647621870,0.025743134319782257,-0.031832672655582428,0.022673370316624641,-0.044377919286489487,-0.031240105628967285,0.023060841485857964,0.069575458765029907,0.044102262705564499,-0.079888492822647095,0.053001634776592255,0.002931898459792137,-0.032032586634159088,0.067285545170307159,-0.036646112799644470,0.051621880382299423,0.010855086147785187,-0.003260718425735831,-0.011541352607309818,0.036176677793264389,-0.049590151757001877,0.021409697830677032,-0.038848686963319778,-0.010786089114844799,0.008153210394084454,-0.066196970641613007,0.006653615273535252,-0.029548384249210358,0.076276615262031555,-0.059368032962083817,-0.000742690055631101,-0.008652350865304470,0.028504785150289536,0.086590863764286041,-0.050265803933143616,0.005680488888174295,0.021217860281467438,-0.000049052967369789,-0.049669135361909866,0.007049620151519775,0.007696721702814102,-0.062145452946424484,-0.044014729559421539,-0.022536359727382660,-0.060306765139102936,-0.010758001357316971,-0.036845102906227112,0.016791392117738724,0.025113489478826523,0.042587392032146454,-0.008652475662529469,0.068656049668788910,0.059582706540822983,0.054320890456438065,-0.063988953828811646,-0.045184563845396042,-0.009539868682622910,-0.013190398924052715,-0.037647441029548645,0.039152897894382477,-0.001896961708553135,0.045358557254076004,0.011267279274761677,-0.043896425515413284,0.028625385835766792,-0.008722400292754173,-0.025380408391356468,-0.001724515343084931,-0.006762660574167967,-0.008784772828221321,-0.040659457445144653,0.031925860792398453,-0.035778116434812546,-0.008541923947632313,0.016177648678421974,-0.003582434495911002,-0.042090311646461487,-0.009735226631164551,-0.035080913454294205,0.051474869251251221
-0.009324823506176472,-0.006910356227308512,0.067447237670421600,0.012013672851026058,0.024124499410390854,-0.031202826648950577,-0.005336550995707512,-0.026210419833660126,-0.012590874917805195,-0.039239030331373215,0.013701637275516987,0.036564521491527557,-0.047608319669961929,0.029992036521434784,0.046906944364309311,0.039353944361209869,0.028553763404488564,0.020441725850105286,-0.052831772714853287,0.007997383363544941,-0.043351255357265472,0.061946365982294083,-0.025198604911565781,0.046541009098291397,-0.020681787282228470,-0.041311487555503845,-0.047963716089725494,-0.041030447930097580,-0.026377007365226746,0.007814856246113777,0.073766045272350311,0.016586121171712875,-0.008464036509394646,0.017967261373996735,-0.033954553306102753,-0.008338359184563160,0.026782752946019173,0.032197635620832443,-0.063768967986106873,0.012055663391947746,-0.022160165011882782,-0.014136054553091526,-0.015590020455420017,0.019204752519726753,-0.017293555662035942,-0.045567356050014496,0.043922789394855499,0.057271279394626617,0.023102179169654846,-0.015263929963111877,0.017984300851821899,0.016215384006500244,0.003461577231064439,-0.041825387626886368,-0.042887479066848755,-0.033993247896432877,-0.031170332804322243,0.014352086000144482,0.018415836617350578,-0.011645890772342682,0.008144690655171871,0.053194675594568253,-0.014136019162833691,-0.000470239261630923,-0.033584389835596085,-0.021029876545071602,0.030915735289454460,-0.007175547070801258,0.001863801036961377,0.008443379774689674,0.013129651546478271,0.007099446840584278,0.019959101453423500,-0.031664241105318069,-0.007366953883320093,-0.024109940975904465,0.026024989783763885,-0.018503537401556969,0.046190988272428513,0.005247773602604866,-0.018836675211787224,0.035785321146249771,0.022053310647606850,-0.017840757966041565,-0.026247184723615646,0.043732699006795883,-0.030515355989336967,0.030910756438970566,-0.044210903346538544,0.013022889383137226,-0.000959166442044079,0.000722589262295514,-0.014190753921866417,0.029128741472959518,0.044165879487991333,-0.058047492057085037,-0.018708961084485054,0.037341233342885971,-0.057936668395996094,-0.022863728925585747,-0.015640804544091225,0.049094207584857941,-0.026078108698129654,-0.040198870003223419,0.004148316103965044,-0.010104221291840076,-0.065681859850883484,0.004126580897718668,-0.069311417639255524,0.008124920539557934,0.068692848086357117,-0.016701651737093925,0.009870684705674648,-0.020024703815579414,-0.019433841109275818,-0.033549994230270386,0.004598295781761408,0.021582843735814095,0.026949049904942513,-0.023457309231162071,0.030397294089198112,-0.023241305723786354,0.003943299874663353,-0.009498066268861294,0.015616912394762039,0.012555724009871483,-0.004844886716455221,0.058072160929441452
0.037914130836725235,-0.053594846278429031,0.028549356386065483,-0.007840557023882866,-0.054339885711669922,-0.038511123508214951,-0.040127195417881012,-0.071295656263828278,-0.037777487188577652,0.030418686568737030,-0.011658262461423874,-0.021205214783549309,-0.017288766801357269,0.001873823464848101,0.011616264469921589,0.028880238533020020,-0.028516806662082672,-0.020033553242683411,-0.056731078773736954,0.032185699790716171,-0.034623574465513229,0.018308436498045921,-0.016472276300191879,0.082080826163291931,-0.037477165460586548,0.027116943150758743,-0.019391689449548721,-0.019110290333628654,0.007473016623407602,0.053751118481159210,0.042731273919343948,0.022908037528395653,0.011855218559503555,0.012298773042857647,0.004276039078831673,0.005797017365694046,0.030945669859647751,-0.030371351167559624,-0.070562876760959625,-0.025839356705546379,-0.029466398060321808,0.016279030591249466,0.000340649043209851,0.042414944618940353,-0.059979077428579330,-0.034770052880048752,0.027534615248441696,-0.003577241208404303,-0.027521457523107529,-0.058899991214275360,-0.024592153728008270,-0.039274629205465317,-0.043440930545330048,-0.034051429480314255,-0.020012902095913887,0.008431361988186836,-0.028538353741168976,-0.043520681560039520,0.021906549111008644,0.010631054639816284,-0.053824108093976974,0.034626103937625885,-0.002510575810447335,-0.000690370623487979,-0.025472095236182213,0.005607488565146923,0.047738838940858841,-0.080463498830795288,-0.005472304765135050,-0.014723936095833778,0.045545514672994614,-0.016447033733129501,0.038380522280931473,-0.016421759501099586,0.051652107387781143,-0.041795279830694199,-0.000117337476694956,-0.087999962270259857,0.058255273848772049,-0.015389677137136459,-0.005948763340711594,-0.004371221642941236,0.004226125776767731,-0.044902045279741287,0.022009657695889473,0.003926481120288372,-0.025467462837696075,0.004024248104542494,-0.013853440061211586,0.018792161718010902,0.015398083254694939,-0.008502414450049400,-0.042815677821636200,0.054169885814189911,-0.004220328759402037,0.013680944219231606,0.014014359563589096,-0.012408436276018620,-0.023520924150943756,0.075345635414123535,-0.004645645152777433,0.007649576757103205,-0.079199045896530151,0.036138631403446198,-0.019049739465117455,0.041649445891380310,-0.076705299317836761,-0.007065766956657171,-0.044750511646270752,0.054762430489063263,0.029353450983762741,-0.021098112687468529,0.008317684754729271,0.019879557192325592,-0.020040495321154594,-0.045998968183994293,-0.045854315161705017,-0.011088540777564049,0.009011140093207359,0.043838337063789368,-0.030617212876677513,-0.021727226674556732,-0.038221832364797592,-0.030645880848169327,-0.030836373567581177,0.002702345605939627,-0.016727911308407784,-0.003011341439560056
0.009721149690449238,-0.072824552655220032,-0.000382135272957385,-0.004546990618109703,0.010318393819034100,0.013336168602108955,0.023266265168786049,0.000525810406543314,0.013017049990594387,-0.006623438559472561,-0.029721215367317200,0.012687708251178265,-0.017018724232912064,0.010710872709751129,-0.022678500041365623,0.084890037775039673,0.036880187690258026,0.028273804113268852,-0.049465503543615341,0.049722794443368912,-0.015243748202919960,0.049086429178714752,0.029545325785875320,0.016706056892871857,0.012254094704985619,0.032723750919103622,-0.080502383410930634,0.004693605471402407,0.009438750334084034,0.027031773701310158,0.057008687406778336,0.020586099475622177,0.071250423789024353,-0.056600779294967651,-0.059142295271158218,0.017474137246608734,0.019048444926738739,0.004121688660234213,-0.060549780726432800,0.016731660813093185,-0.033804666250944138,0.000974395312368870,-0.017661057412624359,0.045275948941707611,-0.059110969305038452,0.022701580077409744,0.009918496944010258,0.027522217482328415,-0.023674480617046356,0.049647670239210129,-0.037295840680599213,-0.025533916428685188,-0.045691318809986115,-0.035391494631767273,-0.012439390644431114,0.004533748608082533,0.042278412729501724,-0.052818465977907181,0.002378022763878107,-0.030805107206106186,-0.021606039255857468,0.006681362632662058,-0.028349069878458977,0.035072576254606247,0.050324428826570511,0.035372536629438400,0.039468329399824142,0.000301527586998418,-0.023578641936182976,0.001897626090794802,-0.022491194307804108,-0.005078002810478210,-0.021283790469169617,-0.090479232370853424,0.090194873511791229,-0.027341799810528755,0.012106545269489288,-0.016438383609056473,0.042695946991443634,0.039755776524543762,0.063989184796810150,0.019373215734958649,-0.007282110862433910,0.009583082050085068,0.023395279422402382,0.039613295346498489,0.040033686906099319,0.009557746350765228,-0.055630080401897430,0.061024680733680725,-0.009449428878724575,0.034257970750331879,-0.018023891374468803,0.022561820223927498,0.007666026242077351,-0.041000504046678543,0.087449215352535248,0.010286593809723854,-0.057580638676881790,0.035676404833793640,0.019260546192526817,0.051045261323451996,0.002315568272024393,0.002917766571044922,0.045069586485624313,-0.024120591580867767,-0.019370229914784431,0.039456289261579514,-0.031048258766531944,-0.017522383481264114,0.023052517324686050,-0.006130774971097708,-0.024214316159486771,-0.015789713710546494,0.006773895118385553,0.051902964711189270,-0.048492386937141418,0.033576134592294693,-0.028880527243018150,0.033824112266302109,-0.000833102676551789,0.017646770924329758,-0.042765747755765915,-0.010415873490273952,-0.004011881537735462,0.022529039531946182,-0.061163745820522308,-0.017805008217692375
-0.015921669080853462,0.029131101444363594,0.000665350875351578,0.070796102285385132,-0.095807164907455444,-0.015115359798073769,0.019329074770212173,-0.047305077314376831,0.045885734260082245,0.003485688706859946,-0.076796837151050568,0.020606735721230507,-0.046682264655828476,0.035533569753170013,-0.017003342509269714,-0.049500241875648499,0.021221866831183434,0.038293015211820602,-0.012397107668220997,0.036129333078861237,0.017330711707472801,0.025559360161423683,-0.030315456911921501,0.001368843950331211,-0.010477842763066292,-0.040313675999641418,-0.003519709454849362,0.053262755274772644,-0.003668996039777994,0.010003647767007351,0.100827172398567200,-0.050291348248720169,0.016409400850534439,-0.028630463406443596,-0.023464135825634003,0.018437173217535019,-0.011226899921894073,-0.084924459457397461,-0.015932578593492508,-0.092243835330009460,-0.019949205219745636,-0.018814977258443832,0.034465849399566650,0.037924371659755707,-0.036231651902198792,-0.035146418958902359,-0.001810181187465787,-0.049063105136156082,0.052264932543039322,-0.035138856619596481,0.008205782622098923,-0.007952757179737091,-0.069408483803272247,-0.011864146217703819,-0.060047358274459839,0.072850748896598816,-0.041581142693758011,-0.050747618079185486,0.012712291441857815,-0.033685084432363510,0.037284810096025467,0.091429457068443298,0.024686975404620171,-0.011479683220386505,0.003587344661355019,-0.019195728003978729,0.015435648150742054,-0.026304442435503006,-0.002376217627897859,0.052615191787481308,-0.009855948388576508,-0.004245498217642307,0.036886062473058701,-0.029153959825634956,0.063866250216960907,-0.012163959443569183,0.023061439394950867,-0.079955510795116425,0.052883774042129517,0.076579004526138306,0.022053947672247887,0.078075073659420013,-0.024412488564848900,-0.036595996469259262,0.011485740542411804,0.082049958407878876,-0.021521011367440224,0.006029881536960602,-0.025054572150111198,-0.054455656558275223,-0.017186094075441360,-0.022519286721944809,-0.021055150777101517,0.019623367115855217,-0.023219780996441841,-0.015529036521911621,0.026334185153245926,0.018389496952295303,-0.006925963331013918,0.006331511307507753,0.001698422594927251,0.055900447070598602,-0.069056198000907898,-0.041070245206356049,0.019491057842969894,0.002595620462670922,-0.023428104817867279,-0.047321714460849762,-0.078336343169212341,0.018916394561529160,0.023783624172210693,0.018720749765634537,0.011600188910961151,0.064726136624813080,-0.065091185271739960,-0.030452845618128777,0.002816951600834727,-0.014334688894450665,-0.027428857982158661,-0.014033661223948002,-0.013180166482925415,0.025524897500872612,-0.059237465262413025,0.022599441930651665,0.016406241804361343,-0.013649880886077881,-0.033208221197128296,0.081949807703495026
0.092793554067611694,-0.001087846001610160,0.065433412790298462,0.007477140519768000,-0.065320543944835663,-0.023094737902283669,0.039362058043479919,-0.009559040889143944,-0.009970224462449551,0.028569808229804039,-0.051420487463474274,0.011005088686943054,-0.003281759098172188,-0.001442124601453543,-0.011510166339576244,0.040311910212039948,-0.040739055722951889,0.026265708729624748,-0.047577898949384689,0.023028183728456497,-0.034394010901451111,0.018548656255006790,0.013031951151788235,0.009048529900610447,0.023748239502310753,0.011060173623263836,-0.031669341027736664,0.029126929119229317,0.061722781509160995,0.046590313315391541,0.019395407289266586,0.012322388589382172,-0.000586517271585763,-0.045865640044212341,-0.007349842227995396,-0.011138550937175751,0.048921734094619751,0.001297999639064074,-0.043172188103199005,-0.040685962885618210,-0.033795047551393509,0.007209361996501684,0.013916259631514549,0.004133086185902357,-0.102750137448310852,-0.011271940544247627,-0.036904498934745789,0.025299509987235069,-0.001724841655232012,-0.006386434193700552,0.030685119330883026,-0.025620326399803162,-0.019898932427167892,0.014802365563809872,0.007438368629664183,-0.017448643222451210,-0.034542307257652283,0.019084315747022629,0.012463244609534740,-0.024980584159493446,0.010151070542633533,-0.008575811050832272,0.007438182830810547,0.014625509269535542,0.033073484897613525,-0.034017663449048996,-0.037384908646345139,-0.128697618842124939,0.051865980029106140,0.047453325241804123,-0.014779116958379745,0.041932154446840286,-0.017250573262572289,-0.053896468132734299,-0.016902839764952660,0.036703977733850479,-0.004667758475989103,-0.029278354719281197,0.038815289735794067,-0.005108144134283066,0.026490099728107452,0.029618185013532639,0.006667367648333311,-0.058784380555152893,0.003328136401250958,0.038614440709352493,0.005301833152770996,-0.031640630215406418,-0.039050426334142685,0.037596657872200012,0.035707920789718628,0.002694268245249987,0.000978959025815129,0.030218889936804771,-0.038322672247886658,-0.033819340169429779,-0.044244393706321716,0.023271195590496063,-0.009407618083059788,0.047553949058055878,0.015904640778899193,-0.005600326228886843,-0.001761134713888168,-0.028774140402674675,0.002731197047978640,0.017008863389492035,-0.075637631118297577,-0.049373753368854523,-0.026948245242238045,0.038649316877126694,-0.019688813015818596,0.037854328751564026,-0.048468347638845444,0.036590892821550369,-0.046649307012557983,0.024918213486671448,0.024463156238198280,0.020275592803955078,0.027880305424332619,-0.038387708365917206,-0.008762254379689693,-0.065544873476028442,0.032528731971979141,-0.033672507852315903,-0.002580380300059915,0.035712283104658127,-0.079959370195865631,0.022837307304143906
0.075734011828899384,-0.051115829497575760,-0.003435240359976888,0.043193344026803970,0.009441220201551914,-0.019027225673198700,0.043211258947849274,-0.000087420034105889,0.004030447453260422,-0.024093624204397202,-0.031314231455326080,0.014515768736600876,-0.023139448836445808,-0.000118234333058354,-0.006893119309097528,-0.012230550870299339,0.053103856742382050,0.019394446164369583,-0.013760214671492577,-0.018826026469469070,0.013404577970504761,0.047463290393352509,-0.007598478347063065,0.075611174106597900,0.021423913538455963,-0.046639930456876755,-0.038472671061754227,0.050988450646400452,0.010557884350419044,-0.016104646027088165,0.013265633955597878,-0.028662310913205147,0.020449588075280190,0.020130818709731102,-0.065959818661212921,-0.018901612609624863,0.066071271896362305,0.021872386336326599,0.004078530706465244,-0.026512496173381805,0.035833559930324554,0.031706042587757111,0.031492348760366440,-0.042989820241928101,-0.019367912784218788,-0.060367979109287262,0.063192456960678101,0.033914007246494293,0.014588643796741962,-0.001394286868162453,-0.005434880033135414,0.024959007278084755,-0.028028443455696106,-0.024887969717383385,-0.057352013885974884,-0.023564428091049194,0.022177413105964661,-0.065294735133647919,-0.020821947604417801,-0.028712159022688866,0.006067072506994009,0.055643502622842789,0.060172095894813538,0.048494238406419754,0.034866999834775925,0.022834895178675652,-0.029757544398307800,-0.063583359122276306,0.010314457118511200,0.022789912298321724,0.034764755517244339,-0.013788143172860146,-0.041078217327594757,-0.056528694927692413,0.061323098838329315,-0.022516613826155663,0.018446231260895729,-0.063555240631103516,0.037485029548406601,-0.025750158354640007,-0.006894557736814022,0.074113368988037109,0.004000608809292316,-0.055863752961158752,0.036171127110719681,0.051239155232906342,-0.015240022912621498,-0.013552363030612469,0.036302749067544937,-0.031812079250812531,-0.024119038134813309,0.064617052674293518,-0.010853400453925133,0.045343030244112015,0.008003799244761467,0.002260155510157347,-0.020782349631190300,0.045471645891666412,-0.035581294447183609,0.056723702698945999,0.039685998111963272,0.053559511899948120,0.010883387178182602,-0.007053594570606947,-0.027588495984673500,0.056603059172630310,-0.019828218966722488,0.030197354033589363,-0.041132271289825439,-0.011559263803064823,0.024744389578700066,-0.038953114300966263,-0.034556083381175995,0.062636174261569977,-0.031209249049425125,0.027824234217405319,-0.010561652481555939,-0.018719010055065155,0.005124950315803289,-0.052051149308681488,-0.004152981098741293,-0.021805712953209877,-0.001759120495989919,-0.000949850247707218,0.072918422520160675,-0.033668704330921173,0.003724149661138654,0.062596306204795837
-0.033569503575563431,-0.068086504936218262,0.022934032604098320,0.010120098479092121,-0.019346149638295174,0.000053001611377113,-0.054453596472740173,0.011920310556888580,-0.031536143273115158,-0.051179900765419006,-0.082334801554679871,-0.013076542876660824,0.040747258812189102,-0.021902974694967270,-0.007263353094458580,0.029394550248980522,0.037671241909265518,-0.001832011737860739,-0.042470920830965042,0.018484400585293770,0.045054748654365540,0.057601299136877060,-0.021966714411973953,0.045374646782875061,-0.017327884212136269,0.005977533757686615,-0.058970566838979721,0.004085564520210028,0.037274833768606186,0.001807534834370017,0.001439953921362758,0.000224986550165340,0.034504324197769165,-0.007778346538543701,-0.006538392510265112,0.038217425346374512,0.000743519864045084,-0.025836052373051643,0.013871315866708755,-0.027317043393850327,-0.064151689410209656,-0.027003202587366104,-0.025312971323728561,-0.063526980578899384,-0.087841920554637909,-0.067681238055229187,-0.001986112911254168,0.064981527626514435,0.023307455703616142,-0.012158427387475967,-0.012451898306608200,-0.047327809035778046,-0.028132874518632889,-0.060783091932535172,-0.058576744049787521,0.034477222710847855,0.009019767865538597,0.030847407877445221,-0.005210367962718010,-0.029290858656167984,-0.016918735578656197,-0.027222620323300362,0.069509923458099365,-0.020719645544886589,0.031355421990156174,-0.039396960288286209,-0.059930566698312759,-0.080816231667995453,-0.027097374200820923,0.010518465191125870,-0.034039262682199478,0.008833903819322586,-0.041486594825983047,-0.059397250413894653,0.010577078908681870,-0.034924298524856567,-0.006615517660975456,-0.071703612804412842,0.055462189018726349,0.011615936644375324,-0.003057579509913921,-0.032204147428274155,-0.019942631945014000,0.010742531158030033,0.007407103199511766,0.007795699872076511,0.019623465836048126,0.041359040886163712,-0.046083308756351471,-0.019114192575216293,-0.028808517381548882,0.022476738318800926,0.043748348951339722,-0.013975592330098152,0.032369889318943024,-0.032344825565814972,0.033984187990427017,0.009244530461728573,-0.026324911043047905,-0.020448660477995872,0.001143050147220492,0.027828779071569443,0.023058012127876282,0.047492768615484238,-0.008085332810878754,0.052597537636756897,-0.004232419654726982,0.022546848282217979,-0.004891606513410807,-0.008931518532335758,0.022067330777645111,0.028395660221576691,-0.007396471220999956,-0.040303476154804230,0.047975659370422363,0.012124850414693356,-0.002849258948117495,-0.021205497905611992,-0.030736856162548065,-0.019426688551902771,0.020101549103856087,-0.056201349943876266,-0.033288210630416870,-0.047008205205202103,0.072332322597503662,-0.034577846527099609,0.000759479473344982,-0.013689820654690266
0.094177931547164917,-0.063164860010147095,0.067237630486488342,0.067718319594860077,-0.086562454700469971,0.021611383184790611,-0.036590300500392914,-0.029986793175339699,-0.029527133330702782,-0.027999900281429291,-0.000402266799937934,0.069041796028614044,0.007238734513521194,0.039924334734678268,0.006529983133077621,0.007452905643731356,0.009726387448608875,0.012062403373420238,-0.040388174355030060,-0.028912452980875969,-0.006296213250607252,-0.003709046868607402,-0.069813124835491180,0.013931713066995144,0.033960036933422089,-0.020263673737645149,0.013870037160813808,0.046882297843694687,-0.018072724342346191,0.064847059547901154,0.026178941130638123,-0.049833472818136215,0.057711903005838394,-0.027757085859775543,0.018395654857158661,0.024402171373367310,0.014677255414426327,-0.057215873152017593,-0.066290043294429779,-0.070937849581241608,0.064225390553474426,0.043536353856325150,-0.022570274770259857,0.025537129491567612,-0.106047391891479492,-0.026731384918093681,-0.012449969537556171,-0.057173997163772583,0.036938250064849854,-0.008977370336651802,0.017660979181528091,-0.054770924150943756,-0.069991976022720337,0.008628749288618565,-0.042562078684568405,-0.016692062839865685,-0.045508887618780136,-0.074747703969478607,0.049067098647356033,-0.061095587909221649,0.018865043297410011,0.014348546043038368,0.002896375022828579,-0.000094437382358592,0.002104606479406357,0.004460911732167006,0.015144379809498787,-0.062449250370264053,-0.029589312151074409,-0.009234996512532234,-0.009197153151035309,0.023928238078951836,0.033447232097387314,-0.053540643304586411,0.053750686347484589,0.041320044547319412,0.016082799062132835,-0.036794029176235199,0.001867395942099392,0.065117843449115753,0.020475272089242935,0.050847902894020081,-0.045020334422588348,0.000822986068669707,-0.030798897147178650,0.012886073440313339,-0.001927429344505072,0.023446451872587204,0.038744363933801651,-0.011074708774685860,0.013351398520171642,-0.042310141026973724,-0.008491437882184982,0.055783852934837341,0.024640003219246864,-0.054329507052898407,0.050443649291992188,0.029153456911444664,-0.004673691000789404,0.079909309744834900,0.038685098290443420,0.002607458736747503,-0.040404874831438065,-0.018469464033842087,-0.000707791186869144,-0.021452482789754868,-0.052880849689245224,0.015730546787381172,-0.041815631091594696,0.070554934442043304,-0.019654205068945885,0.003070885781198740,0.007175334729254246,0.077243782579898834,-0.003163412213325500,0.029463581740856171,-0.042371097952127457,-0.050271000713109970,-0.040762983262538910,-0.011173540726304054,0.022838953882455826,0.013766282238066196,0.020086770877242088,-0.002650077454745770,0.015364321880042553,0.014710035175085068,-0.093184806406497955,0.047096371650695801
0.040595043450593948,0.002986019244417548,0.001079353620298207,-0.008648101240396500,0.000018913080566563,0.056561909615993500,-0.040259215980768204,0.017637912184000015,0.047204311937093735,-0.045284628868103027,0.011587682180106640,-0.006826310418546200,0.027534076943993568,-0.021397903561592102,-0.058365445584058762,0.013040360994637012,0.028010593727231026,-0.034712057560682297,-0.028286125510931015,0.008705799467861652,-0.012891223654150963,-0.043566998094320297,-0.053038287907838821,-0.034317553043365479,-0.019995387643575668,-0.056575156748294830,0.015340927988290787,0.040183782577514648,0.057431276887655258,0.022248782217502594,0.060960527509450912,-0.018885307013988495,0.055810675024986267,-0.021924166008830070,-0.051724627614021301,0.043972488492727280,0.054102115333080292,0.013428580947220325,-0.004489198792725801,0.006519684102386236,-0.055023305118083954,0.038330581039190292,-0.010766970925033092,-0.021792544052004814,-0.083322897553443909,0.001353309024125338,0.022594209760427475,0.050925508141517639,-0.002581435255706310,-0.022774023935198784,0.010064269416034222,-0.058031089603900909,-0.024593790993094444,0.008913844823837280,0.000386072322726250,0.040329806506633759,-0.007542647421360016,0.029436279088258743,-0.012311897240579128,-0.034472979605197906,0.004209347069263458,-0.017156189307570457,-0.015054009854793549,-0.016613015905022621,0.072913929820060730,-0.003225786378607154,-0.013822093605995178,-0.045197408646345139,0.033226162195205688,0.009638652205467224,0.013790190219879150,0.058445550501346588,0.040603145956993103,-0.029988871887326241,0.058676071465015411,0.080041512846946716,0.000170960032846779,-0.036143280565738678,-0.008043151348829269,0.035220678895711899,-0.011397423222661018,0.021395789459347725,-0.024995211511850357,-0.027944052591919899,0.007055043708533049,0.066726893186569214,0.021419595927000046,0.032133802771568298,0.020488377660512924,-0.055557783693075180,-0.055851161479949951,-0.030272705480456352,0.026547016575932503,0.019938448444008827,-0.041395340114831924,0.004370683338493109,-0.012553692795336246,-0.039957497268915176,-0.016301963478326797,0.002008017851039767,0.008434081450104713,0.056060239672660828,-0.005804182961583138,-0.045834761112928391,0.024597866460680962,0.022609263658523560,-0.064290799200534821,0.040469866245985031,-0.039996743202209473,0.049788717180490494,0.020809268578886986,-0.008772256784141064,0.009107224643230438,0.043597344309091568,-0.048310019075870514,0.022824136540293694,-0.019971322268247604,-0.017184732481837273,0.008520702831447124,0.023580487817525864,-0.003267185995355248,0.022702075541019440,-0.007742644287645817,-0.019284596666693687,0.019109265878796577,-0.003758508712053299,-0.028468506410717964,-0.049556408077478409
0.081771872937679291,0.023987825959920883,0.049614410847425461,0.014062320813536644,-0.016461148858070374,-0.021287050098180771,0.004105123225599527,-0.019432548433542252,0.004611300304532051,-0.009133924730122089,-0.009006100706756115,-0.013346530497074127,-0.035108909010887146,-0.049211643636226654,-0.048592124134302139,-0.039613801985979080,0.007724929600954056,-0.034239839762449265,0.013079645112156868,0.051853585988283157,-0.001493658055551350,0.013083362020552158,-0.064424529671669006,0.000649894238449633,0.033550024032592773,-0.050700303167104721,-0.037727750837802887,0.055261217057704926,0.027324441820383072,0.052962992340326309,0.076555505394935608,0.017151497304439545,0.051507662981748581,-0.031507682055234909,0.010840151458978653,-0.021970054134726524,0.073353126645088196,-0.004146827850490808,-0.012679042294621468,0.030088514089584351,-0.067522689700126648,-0.041447859257459641,-0.062537886202335358,-0.019546935334801674,-0.106964521110057831,-0.007936351001262665,-0.013172814622521400,0.067915230989456177,0.033028937876224518,0.064925596117973328,0.042354930192232132,-0.007282037287950516,-0.019175812602043152,-0.034123413264751434,0.022496785968542099,0.021748807281255722,-0.012988972477614880,-0.032761022448539734,-0.002610615687444806,-0.046472869813442230,0.040871415287256241,-0.001519028563052416,0.029884003102779388,0.041512541472911835,0.024323036894202232,-0.050121076405048370,0.006009290460497141,-0.076639078557491302,-0.032332744449377060,-0.033320765942335129,0.002578838262706995,0.009995980188250542,0.010413738898932934,-0.042129013687372208,-0.013067025691270828,0.007055289112031460,-0.009400668554008007,-0.006518240552395582,0.040539853274822235,-0.010662358254194260,0.007785599678754807,0.072606615722179413,-0.014894642867147923,-0.059702806174755096,0.006236987188458443,0.033422414213418961,-0.036531995981931686,0.045097079128026962,0.019248960539698601,0.031018733978271484,0.037357933819293976,0.023014876991510391,0.048614259809255600,-0.028477739542722702,-0.049271218478679657,-0.051306441426277161,-0.045250844210386276,-0.001979788066819310,-0.050252828747034073,0.060700211673974991,-0.043887853622436523,0.036310207098722458,0.023060806095600128,-0.011785360984504223,-0.036725457757711411,0.025063179433345795,-0.089269772171974182,-0.006873445585370064,-0.036331854760646820,0.033611081540584564,-0.018462760373950005,0.039282880723476410,-0.001159850391559303,0.067606523633003235,-0.032354231923818588,-0.029201764613389969,0.037026781588792801,0.049342658370733261,-0.053752232342958450,-0.065891906619071960,-0.015153166837990284,-0.023583287373185158,0.045274052768945694,0.012343835085630417,-0.018394835293292999,-0.051302086561918259,-0.082334831357002258,0.033247247338294983
0.074209108948707581,0.043624043464660645,0.027132146060466766,0.056530989706516266,0.021297695115208626,-0.012363172136247158,-0.027446331456303596,-0.023352840915322304,-0.046451922506093979,0.043406512588262558,-0.054752476513385773,0.028591783717274666,0.004726493265479803,-0.042869940400123596,-0.012517917901277542,-0.009923215955495834,0.024355782195925713,0.002442510798573494,-0.048226334154605865,-0.051296200603246689,-0.029953436926007271,0.014627855271100998,0.031162116676568985,0.032196465879678726,0.003841116093099117,-0.045126508921384811,0.024989297613501549,-0.016046296805143356,0.036848992109298706,-0.012182361446321011,0.020493745803833008,-0.015325989574193954,0.047469962388277054,-0.034077949821949005,-0.032668840140104294,0.043345954269170761,0.054290622472763062,-0.022710025310516357,0.019942626357078552,0.003039527917280793,0.004213135689496994,0.012862198986113071,-0.016457587480545044,-0.029487384483218193,-0.064590089023113251,-0.048198550939559937,0.043228209018707275,0.043121699243783951,-0.063967756927013397,-0.006587755866348743,-0.010069407522678375,-0.006396571639925241,-0.044418253004550934,-0.016749382019042969,-0.045305334031581879,-0.041840467602014542,0.005381668917834759,0.028438216075301170,-0.048654202371835709,-0.008397100493311882,-0.032423462718725204,0.007531342096626759,-0.037537198513746262,-0.016992917284369469,0.049238648265600204,-0.008186077699065208,0.003784518688917160,-0.130294561386108398,0.030400268733501434,0.036753486841917038,0.017165677621960640,-0.045249585062265396,0.017217192798852921,-0.099715709686279297,0.003933579660952091,-0.012158804573118687,0.021262530237436295,-0.018149111419916153,0.039770130068063736,-0.037955556064844131,-0.012750344350934029,-0.008821584284305573,0.048480346798896790,0.016954103484749794,-0.012938375584781170,0.055594641715288162,-0.027023676782846451,-0.028502225875854492,0.051255453377962112,-0.041709076613187790,-0.005505419801920652,0.046174686402082443,0.018688116222620010,0.045049864798784256,0.017853617668151855,-0.015155439265072346,0.028408449143171310,0.038143340498209000,-0.095292612910270691,0.015744661912322044,-0.062294919043779373,0.064974687993526459,-0.013433920219540596,0.014532038010656834,0.044202961027622223,0.005817214027047157,-0.022406611591577530,-0.003575005801394582,-0.031380575150251389,-0.031186293810606003,-0.001123337191529572,0.014812067151069641,-0.036462701857089996,0.037271130830049515,0.005296848714351654,-0.032273367047309875,0.069268859922885895,0.022686865180730820,0.032157637178897858,0.032872136682271957,0.006942997686564922,-0.067733667790889740,-0.002877719001844525,-0.037474971264600754,0.032976236194372177,0.035177495330572128,-0.063746817409992218,-0.009859072975814342
0.091159522533416748,0.038797155022621155,0.057728338986635208,-0.001557537238113582,-0.045204155147075653,0.003543873317539692,0.018238976597785950,-0.005075898952782154,0.044228173792362213,-0.034069318324327469,-0.000234175677178428,0.018074251711368561,-0.021883094683289528,-0.037620414048433304,0.009970056824386120,0.023623686283826828,0.023410461843013763,0.007412699051201344,-0.025774402543902397,0.024781432002782822,-0.051831807941198349,0.055654153227806091,-0.074754379689693451,0.004117115866392851,0.020317399874329567,0.007976250723004341,-0.013145486824214458,0.007764883805066347,0.055891159921884537,0.046624906361103058,0.010994154959917068,-0.007296229712665081,0.051955118775367737,-0.028388226404786110,-0.007276666350662708,0.027666144073009491,0.093785688281059265,-0.066988401114940643,-0.049796216189861298,-0.069873027503490448,-0.020380046218633652,-0.006517561618238688,-0.070076018571853638,0.009703821502625942,-0.057537943124771118,-0.092490598559379578,-0.037492685019969940,0.038137059658765793,0.005068643484264612,0.065354295074939728,-0.035748578608036041,-0.004171411972492933,-0.007164589595049620,0.035124275833368301,-0.026479441672563553,0.016206573694944382,-0.051857639104127884,-0.064370460808277130,-0.013587129302322865,-0.014465643092989922,0.027622068300843239,0.059528239071369171,-0.060931835323572159,0.043298389762639999,0.034406196326017380,0.034665025770664215,-0.012926983647048473,-0.108875818550586700,-0.042361445724964142,-0.052829060703516006,0.016508925706148148,0.056810922920703888,0.018596325069665909,-0.107780173420906067,-0.039570130407810211,0.058548122644424438,0.033166274428367615,-0.030014079064130783,-0.027498250827193260,-0.031523883342742920,0.016621420159935951,0.070740140974521637,0.022601766511797905,-0.005454160738736391,0.032367479056119919,0.071268096566200256,0.012680379673838615,-0.046804737299680710,0.027994243428111076,0.035078562796115875,-0.041458237916231155,-0.001119035878218710,0.037942089140415192,0.033992666751146317,-0.016905521973967552,-0.055365201085805893,-0.018491353839635849,0.032730549573898315,-0.074355185031890869,-0.009938413277268410,-0.010562346316874027,0.052133139222860336,0.040608860552310944,0.030258182436227798,-0.068145953118801117,-0.036866497248411179,-0.018930444493889809,-0.033362768590450287,-0.067923098802566528,0.051466748118400574,-0.009808497503399849,0.010024833492934704,0.023602405562996864,0.053522463887929916,0.001135791651904583,0.017298961058259010,0.030642731115221977,-0.027997499331831932,0.028416616842150688,0.019473580643534660,0.036346998065710068,-0.030928976833820343,0.024765616282820702,0.045537158846855164,0.025671103969216347,-0.049386847764253616,-0.037584852427244186,0.045271690934896469
0.004119928926229477,-0.025101114064455032,-0.027586862444877625,0.015325776301324368,0.034164350479841232,0.044308051466941833,0.022707942873239517,0.052482564002275467,-0.002429176121950150,0.037690311670303345,0.005230749957263470,-0.045992080122232437,0.000764584168791771,0.009261716157197952,-0.003076543100178242,0.050532035529613495,0.002789716236293316,-0.043676786124706268,-0.011385988444089890,0.000474184926133603,0.018089035525918007,-0.012680238112807274,0.028545401990413666,0.054734118282794952,0.053461506962776184,-0.036012250930070877,0.037615388631820679,0.025914009660482407,0.032492019236087799,-0.045851524919271469,-0.001123049529269338,0.022152932360768318,0.023611372336745262,-0.031331121921539307,-0.034607630223035812,-0.021608930081129074,-0.001125319628044963,-0.036795005202293396,0.025636278092861176,-0.039489820599555969,-0.031208155676722527,-0.009645669721066952,-0.001994642661884427,-0.009383511729538441,-0.078541778028011322,-0.043593928217887878,0.015591613017022610,-0.027194617316126823,-0.005736197810620070,0.007711250800639391,-0.018060998991131783,-0.059023924171924591,-0.059740658849477768,-0.009280544705688953,-0.036229845136404037,0.034554287791252136,-0.046791173517704010,-0.055875569581985474,0.019122555851936340,-0.026573272421956062,0.040517825633287430,0.032269500195980072,-0.006432906724512577,-0.003142512869089842,-0.022935057058930397,0.001377345179207623,0.015720993280410767,-0.048974025994539261,-0.023683937266469002,-0.025151643902063370,-0.009123820811510086,0.022371878847479820,-0.043890859931707382,-0.000412452907767147,-0.002841879380866885,0.061564300209283829,0.040721338242292404,-0.016508923843502998,0.019665461033582687,0.050708930939435959,0.048779025673866272,0.038703490048646927,0.062063809484243393,-0.027507660910487175,-0.026977030560374260,-0.008206489495933056,-0.023845519870519638,-0.035354167222976685,-0.004891509655863047,0.022688569501042366,-0.013183069415390491,-0.042787551879882812,0.014106269925832748,-0.028461666777729988,-0.029043087735772133,-0.019753975793719292,-0.032045841217041016,0.018532680347561836,-0.009619469754397869,0.031516391783952713,0.007578076329082251,0.007979332469403744,0.049105897545814514,0.035674765706062317,-0.034354422241449356,0.014412897638976574,-0.067697688937187195,0.007841798476874828,-0.046550229191780090,0.055629227310419083,0.024047223851084709,0.040437515825033188,-0.033923290669918060,-0.000040616861952003,-0.028085852041840553,0.000977802439592779,0.031998664140701294,0.000065911059209611,-0.005696525331586599,0.043898273259401321,0.028103416785597801,0.000646801898255944,-0.014758338220417500,0.003734813304618001,-0.038054201751947403,-0.051850792020559311,-0.001663019997067750,0.024286018684506416
0.059126615524291992,-0.016686463728547096,0.051733080297708511,0.031253572553396225,-0.019526328891515732,0.044567182660102844,-0.039907366037368774,-0.020198119804263115,0.038472775369882584,0.020399088039994240,-0.012345853261649609,-0.042081128805875778,-0.033631190657615662,-0.047519762068986893,-0.017971526831388474,-0.005280840210616589,0.032463721930980682,-0.024982292205095291,-0.021953206509351730,0.033944446593523026,-0.005814777221530676,-0.015501067973673344,-0.071272410452365875,0.007974175736308098,0.024161318317055702,-0.043741498142480850,0.044686663895845413,-0.007157118059694767,0.033310096710920334,0.033371992409229279,-0.021146235987544060,0.044186938554048538,0.024943565949797630,-0.074581220746040344,0.000851061369758099,-0.029019795358181000,0.035795446485280991,-0.009949686937034130,-0.065987981855869293,0.003086433513090014,-0.006370748393237591,0.033723480999469757,-0.043256822973489761,-0.031664203852415085,-0.054880380630493164,0.001651018741540611,0.044353827834129333,0.022619374096393585,-0.042337894439697266,0.002738706301897764,-0.052695814520120621,0.005801034159958363,-0.065842568874359131,-0.046539742499589920,-0.061245299875736237,-0.007358233444392681,0.011953372508287430,-0.020836355164647102,0.039163071662187576,-0.027375901117920876,-0.036132160574197769,0.022561203688383102,-0.066197089850902557,0.037095703184604645,0.060585960745811462,-0.071499563753604889,0.013898043893277645,-0.062246590852737427,-0.015238250605762005,-0.028805758804082870,-0.004050249233841896,0.025439770892262459,-0.020789524540305138,-0.008879329077899456,0.058348890393972397,0.034037243574857712,0.063953638076782227,0.000457255315268412,-0.021972637623548508,-0.007226674817502499,0.030097519978880882,0.020184796303510666,-0.016435733065009117,-0.019906358793377876,0.005996415857225657,0.063679337501525879,-0.041492305696010590,0.048153150826692581,0.023051291704177856,0.025723185390233994,-0.042621135711669922,0.055647160857915878,0.065286919474601746,-0.042032036930322647,-0.049706086516380310,-0.038697615265846252,-0.053256701678037643,0.028617406263947487,-0.022907817736268044,-0.034321781247854233,0.021687023341655731,-0.016972284764051437,0.032029945403337479,-0.035390734672546387,-0.000992902787402272,0.030973114073276520,-0.011866416782140732,-0.034882679581642151,0.017316346988081932,0.043425194919109344,-0.015858881175518036,0.013443843461573124,-0.011527717113494873,0.036935091018676758,0.018835118040442467,0.007270073983818293,-0.052288714796304703,-0.009025111794471741,-0.002793853171169758,-0.051637060940265656,0.010994816198945045,-0.034315396100282669,0.056090839207172394,0.024644091725349426,0.008336653001606464,0.018205869942903519,-0.027420558035373688,-0.041983440518379211
-0.017327675595879555,0.008140379562973976,0.007054848596453667,-0.022242510691285133,0.048751804977655411,-0.004995224066078663,0.024636225774884224,0.060115497559309006,0.014962844550609589,-0.031492017209529877,0.010145577602088451,0.026591420173645020,-0.027461690828204155,-0.053906921297311783,-0.038944311439990997,0.064866103231906891,0.008025296032428741,-0.014276503585278988,-0.017715552821755409,-0.006196853704750538,0.009268846362829208,0.031936727464199066,-0.051315233111381531,-0.015658589079976082,0.046060379594564438,-0.066427148878574371,0.042970087379217148,0.027110317721962929,0.039524342864751816,-0.046046115458011627,0.040298454463481903,0.044139537960290909,0.055403869599103928,-0.049346234649419785,-0.017157269641757011,-0.023980731144547462,0.043296266347169876,-0.048850163817405701,-0.016806468367576599,-0.017181865870952606,-0.016197811812162399,-0.035177975893020630,0.035989146679639816,-0.003736134385690093,-0.096877396106719971,-0.074504040181636810,0.001560956356115639,0.007278748787939548,-0.046421755105257034,-0.010090482421219349,0.017530966550111771,-0.053589731454849243,-0.017024392262101173,-0.054397907108068466,0.021533761173486710,0.007044088561087847,0.014033785089850426,0.037271995097398758,0.016539562493562698,0.015589904040098190,0.007320559583604336,-0.000720852287486196,-0.036764975637197495,0.011819542385637760,-0.010518135502934456,-0.038424927741289139,-0.017978359013795853,-0.093231044709682465,0.029497057199478149,-0.056302599608898163,-0.002714765723794699,0.030559634789824486,-0.031575806438922882,-0.006654997356235981,0.035324402153491974,0.066206634044647217,0.046310260891914368,0.026029122993350029,0.071295619010925293,-0.053464833647012711,-0.012917243875563145,0.021572574973106384,0.005163152236491442,-0.053454786539077759,0.024538600817322731,0.036840341985225677,-0.069392777979373932,-0.017084002494812012,0.033231876790523529,-0.004450361244380474,-0.053657870739698410,0.046153359115123749,-0.017485106363892555,0.009913166053593159,-0.042292281985282898,-0.026623234152793884,0.004882624372839928,-0.030968207865953445,-0.024468507617712021,-0.019208163022994995,-0.036165148019790649,-0.030803518369793892,-0.009320265613496304,0.010167465545237064,-0.048037968575954437,-0.021710157394409180,-0.018676662817597389,-0.034388445317745209,-0.012120087631046772,0.058323051780462265,0.018031278625130653,-0.034468077123165131,-0.005203612614423037,0.028991755098104477,-0.007981473580002785,0.057595059275627136,0.017479091882705688,0.034960538148880005,0.012622699141502380,-0.022056961432099342,0.021685699000954628,0.002750088460743427,-0.004395508673042059,0.017256686463952065,-0.040676672011613846,-0.028345461934804916,-0.037108197808265686,0.012327201664447784
0.012448272667825222,0.014752240851521492,0.003343177959322929,0.036347277462482452,-0.070457287132740021,0.042223114520311356,-0.008838499896228313,0.069487154483795166,-0.025445552542805672,0.039358247071504593,0.061123449355363846,-0.029096305370330811,0.026871770620346069,-0.023217413574457169,-0.024117525666952133,-0.020382674410939217,0.016116457059979439,-0.005623283796012402,-0.018844667822122574,0.041445259004831314,-0.068302430212497711,-0.020491702482104301,-0.065088786184787750,0.036722313612699509,-0.051936563104391098,-0.049134425818920135,0.043899666517972946,0.039133042097091675,-0.013056904077529907,0.020595487207174301,-0.030639719218015671,0.007090147119015455,-0.012809263542294502,-0.075929023325443268,0.019366892054677010,0.009527062065899372,0.053191591054201126,0.022813897579908371,-0.063916556537151337,-0.006907908245921135,-0.058327224105596542,-0.020176693797111511,0.005430418532341719,0.029352035373449326,-0.072575300931930542,-0.066314227879047394,-0.050486277788877487,0.012074933387339115,-0.054151225835084915,-0.016085075214505196,0.013593841344118118,-0.018022276461124420,-0.011909632012248039,-0.019027737900614738,-0.029330985620617867,0.031251903623342514,-0.046941913664340973,-0.079027399420738220,0.004009365104138851,-0.066711895167827606,0.041690576821565628,-0.023824270814657211,-0.012273600324988365,-0.009658287279307842,-0.022470662370324135,0.022483756765723228,0.036252558231353760,-0.084619700908660889,-0.032250028103590012,0.023571733385324478,0.029626499861478806,0.058897178620100021,0.027293795719742775,-0.045907605439424515,-0.051238112151622772,0.068887636065483093,-0.002662636805325747,0.014492196030914783,-0.025922968983650208,0.025944110006093979,0.039749670773744583,-0.007741437759250402,-0.044499341398477554,0.011678298003971577,0.023421503603458405,0.055549893528223038,-0.031756900250911713,0.040266562253236771,0.068811587989330292,-0.000662801321595907,0.009259002283215523,-0.056858200579881668,0.075873732566833496,-0.035451706498861313,-0.053892284631729126,-0.008890454657375813,-0.091866150498390198,0.017790706828236580,-0.066594086587429047,0.045285612344741821,0.013345320709049702,-0.010102583095431328,-0.011366911232471466,-0.049099802970886230,-0.013733021914958954,-0.043924711644649506,-0.016919312998652458,-0.030149258673191071,-0.045017424970865250,-0.009660063311457634,0.029544999822974205,-0.055048946291208267,-0.020439678803086281,0.078260727226734161,-0.039594903588294983,-0.042380981147289276,0.010126060806214809,0.033077638596296310,-0.021534223109483719,0.005764406640082598,0.031474448740482330,-0.039793942123651505,-0.023820346221327782,0.068633683025836945,0.047528687864542007,-0.039579905569553375,0.015618392266333103,0.010740410536527634
-0.034251525998115540,-0.033040370792150497,0.051051069051027298,0.017408361658453941,0.044054586440324783,0.043143533170223236,0.031503565609455109,0.014801899902522564,0.026163008064031601,-0.016222408041357994,0.014391059987246990,-0.028840070590376854,-0.029826626181602478,0.021416259929537773,-0.006658895872533321,0.007790195755660534,-0.003982550930231810,-0.028816659003496170,0.043198823928833008,-0.001040796632878482,-0.030820986256003380,-0.023687060922384262,0.031692840158939362,-0.000184783988515846,-0.017133200541138649,0.017492966726422310,0.053877566009759903,0.017807086929678917,0.044546585530042648,-0.047724276781082153,-0.012337776832282543,0.015964493155479431,-0.008670688606798649,-0.018171858042478561,-0.069743551313877106,0.024371834471821785,-0.004917766898870468,-0.031848467886447906,-0.009053592570126057,-0.048815809190273285,-0.025676677003502846,-0.054618440568447113,0.002167036291211843,-0.010438735596835613,-0.046704843640327454,-0.044644344598054886,-0.056019514799118042,0.003308729734271765,-0.007746180053800344,-0.010860322974622250,-0.029341058805584908,-0.052548766136169434,-0.042160220444202423,-0.019648132845759392,0.019931172952055931,0.024059128016233444,-0.048851594328880310,-0.042721644043922424,0.034290041774511337,0.022413989529013634,0.006356249097734690,0.031053526327013969,-0.083493813872337341,0.019387511536478996,-0.027763672173023224,-0.018100280314683914,0.015530751086771488,-0.027408789843320847,0.041939400136470795,-0.063655696809291840,0.017417557537555695,-0.008248639293015003,-0.044832572340965271,0.023218056187033653,0.037747696042060852,0.035070657730102539,0.016422400251030922,0.024692546576261520,0.021601043641567230,-0.022668993100523949,-0.017276369035243988,0.024304641410708427,0.057696722447872162,0.013320345431566238,0.000696306640747935,0.069375500082969666,-0.051084887236356735,0.040171176195144653,0.052092134952545166,-0.053648646920919418,-0.005680972244590521,0.045889630913734436,-0.013178965076804161,0.004283918999135494,-0.019786562770605087,0.038864485919475555,-0.088960833847522736,-0.001123961759731174,-0.005675350781530142,0.042446307837963104,0.034754831343889236,-0.019819973036646843,-0.017722230404615402,-0.024480268359184265,-0.063031561672687531,-0.065180979669094086,-0.000987763633020222,-0.050727989524602890,0.021630398929119110,-0.017635559663176537,-0.045317463576793671,-0.048682291060686111,0.028117548674345016,0.089200414717197418,-0.022419892251491547,0.056274536997079849,-0.028109963983297348,0.005295412149280310,-0.013862299732863903,0.066443443298339844,-0.023137548938393593,-0.031888373196125031,0.054051924496889114,-0.021045166999101639,-0.041911054402589798,0.035823624581098557,0.002693349495530128,0.023136779665946960
0.046301431953907013,0.009606772102415562,0.059475488960742950,0.055682051926851273,-0.016581138595938683,0.047001086175441742,0.037250395864248276,0.033536516129970551,-0.023019207641482353,-0.009773832745850086,0.042136043310165405,-0.044332917779684067,-0.016033899039030075,0.042947720736265182,0.019209329038858414,0.039350572973489761,0.031782656908035278,0.035066433250904083,-0.012047595344483852,0.032361228018999100,0.013669356703758240,-0.018965989351272583,-0.005413430742919445,0.022975184023380280,-0.034942757338285446,0.000493134022690356,0.001334943575784564,-0.009443827904760838,0.050579261034727097,0.002875805366784334,0.070602096617221832,-0.030903393402695656,0.048663839697837830,-0.020978992804884911,-0.044677797704935074,-0.008169091306626797,0.068653464317321777,-0.069380529224872589,-0.000104435734101571,-0.022910371422767639,-0.045878902077674866,-0.032233234494924545,-0.000004413188435137,0.082874849438667297,-0.023197768256068230,-0.073544055223464966,0.014695417135953903,-0.005856177303940058,-0.011665274389088154,-0.043369781225919724,-0.051905170083045959,0.006280955858528614,-0.014196964912116528,-0.004443548154085875,-0.016316302120685577,-0.004985638894140720,-0.038446728140115738,-0.051473949104547501,-0.049270335584878922,-0.051898796111345291,0.017184387892484665,0.022671384736895561,-0.022997878491878510,0.048832632601261139,0.048799127340316772,-0.017691183835268021,-0.058980409055948257,0.002684183651581407,0.059030584990978241,-0.035981588065624237,-0.047685187309980392,0.021551754325628281,0.004776705522090197,0.000010703231964726,0.057978000491857529,0.012794568203389645,-0.005150867160409689,-0.039241988211870193,0.037556573748588562,0.036053102463483810,0.012626867741346359,0.041168306022882462,0.030906798318028450,-0.042963489890098572,0.048557352274656296,0.012474611401557922,-0.091596364974975586,-0.037131953984498978,0.039489120244979858,-0.035200797021389008,-0.019839523360133171,0.005723497830331326,0.036498855799436569,-0.044059559702873230,-0.044220753014087677,-0.011269415728747845,-0.065800532698631287,-0.054803568869829178,0.003779931226745248,0.029255794361233711,0.018129123374819756,0.005038148257881403,-0.005746444221585989,-0.049236174672842026,-0.019144127145409584,-0.037381105124950409,0.011283691972494125,0.016759589314460754,0.036191526800394058,-0.013042516075074673,-0.034987423568964005,-0.039884045720100403,-0.042802073061466217,0.020694088190793991,0.015372115187346935,-0.042078007012605667,0.000567582726944238,-0.006173231638967991,0.036570467054843903,-0.027079522609710693,0.042397070676088333,0.014724607579410076,0.003568348707631230,-0.004765091463923454,0.049928631633520126,0.032399483025074005,0.023869510740041733,-0.000080532423453405
-0.030990626662969589,0.031989321112632751,0.065171375870704651,-0.017844978719949722,0.048465721309185028,0.040881942957639694,0.000094903844001237,0.047405213117599487,-0.045466046780347824,-0.008405915461480618,0.012336176820099354,-0.044877305626869202,-0.006271553225815296,0.006593676283955574,0.001431088661774993,0.007580955047160387,-0.009424410760402679,0.050197266042232513,0.000580045743845403,0.036665908992290497,-0.002581524197012186,0.015396579168736935,-0.037780646234750748,-0.013680194504559040,0.009345089085400105,-0.057215232402086258,0.027012590318918228,-0.051131650805473328,-0.012115102261304855,-0.050709139555692673,-0.021951045840978622,-0.037575442343950272,0.059644840657711029,-0.010734706185758114,-0.006221370771527290,-0.052173025906085968,0.022542633116245270,0.005665052682161331,-0.027355207130312920,-0.009120051749050617,-0.093477621674537659,0.039667889475822449,-0.019294153898954391,0.027311492711305618,-0.064321108162403107,-0.018406748771667480,0.038649328052997589,0.014606819488108158,0.001264394843019545,-0.031614448875188828,-0.027025640010833740,0.023790299892425537,-0.092227898538112640,0.004344838671386242,0.025135166943073273,0.002664315281435847,0.033684831112623215,0.013943661004304886,-0.042691960930824280,-0.042472604662179947,0.030729493126273155,-0.038818456232547760,-0.034694388508796692,0.050546232610940933,0.048817001283168793,-0.020061137154698372,-0.021496025845408440,-0.077802471816539764,0.000738031289074570,-0.043720226734876633,0.021822784096002579,-0.023072518408298492,-0.015788838267326355,-0.003189028240740299,-0.031368985772132874,0.040572032332420349,0.056151084601879120,0.021919721737504005,0.041168820112943649,-0.029816498979926109,0.039442058652639389,0.042920101433992386,-0.015318359248340130,-0.053736258298158646,0.043810017406940460,-0.026442313566803932,-0.086740225553512573,-0.031539097428321838,0.020819609984755516,-0.059802893549203873,-0.033436845988035202,-0.012587247416377068,0.029781050980091095,0.041960757225751877,0.049898009747266769,-0.001240097102709115,-0.049248389899730682,-0.019275488331913948,-0.016363091766834259,0.021402355283498764,0.013402409851551056,-0.008350005373358727,0.011830450035631657,-0.005481130443513393,0.008856649510562420,-0.054185815155506134,-0.011323971673846245,-0.043352030217647552,-0.017172293737530708,0.029765047132968903,0.009700885973870754,0.031081747263669968,0.018288165330886841,-0.011385614052414894,0.045342963188886642,0.072318360209465027,-0.023858711123466492,0.022999752312898636,-0.010311714373528957,0.028832308948040009,-0.010160476900637150,-0.032190468162298203,0.004969299305230379,-0.014960994012653828,-0.006088785361498594,0.002496068598702550,0.006203060038387775,-0.024885891005396843
0.012975311838090420,0.022459398955106735,0.044936362653970718,0.014196215197443962,-0.020551310852169991,0.029478656128048897,-0.036113854497671127,0.048479754477739334,0.034184500575065613,-0.015671450644731522,0.045517098158597946,0.006304544862359762,0.008837125264108181,0.016119042411446571,-0.029309907928109169,0.048030626028776169,0.014675910584628582,-0.006283671595156193,-0.043279200792312622,0.012412397190928459,0.022180788218975067,-0.034843552857637405,-0.059753596782684326,-0.017944253981113434,-0.047983348369598389,-0.035112515091896057,0.002019569743424654,0.017636457458138466,0.036169484257698059,-0.004720878321677446,-0.024789569899439812,-0.039918556809425354,-0.050185486674308777,-0.008618003688752651,-0.024998638778924942,0.007662831339985132,0.021049883216619492,-0.015232032164931297,0.002849142532795668,-0.008894721046090126,0.022247685119509697,-0.012345097959041595,0.043017443269491196,0.033922906965017319,-0.020790325477719307,0.004720445256680250,-0.039409309625625610,0.023232767358422279,-0.051103819161653519,-0.008413497358560562,-0.018639780580997467,0.015434446744620800,-0.036714166402816772,-0.026044206693768501,-0.037564486265182495,-0.004681948106735945,0.020840382203459740,-0.035033844411373138,-0.017810121178627014,-0.012236440554261208,0.011229571886360645,0.020525570958852768,-0.028098512440919876,-0.017110200598835945,-0.016997685655951500,0.035243880003690720,-0.053130593150854111,-0.002155501861125231,-0.025903247296810150,-0.040242493152618408,-0.008657775819301605,0.005059900693595409,0.026471199467778206,0.026050658896565437,0.025403885170817375,-0.015523664653301239,0.024091472849249840,-0.012404012493789196,-0.029058093205094337,0.037047721445560455,0.078849077224731445,0.042406622320413589,-0.020206661894917488,-0.036130059510469437,0.045530855655670166,0.033567707985639572,-0.029658630490303040,-0.024341691285371780,0.039413213729858398,-0.051522959023714066,0.028393140062689781,-0.045743331313133240,0.054640874266624451,0.044729731976985931,-0.034697260707616806,-0.042191263288259506,-0.075068853795528412,0.048001285642385483,-0.030666902661323547,0.039003957062959671,0.051546219736337662,-0.030228130519390106,0.021866697818040848,-0.018893392756581306,-0.028960255905985832,-0.027559442445635796,-0.021079275757074356,-0.044554103165864944,-0.048205278813838959,0.049076668918132782,0.012835018336772919,0.019834069535136223,-0.031750649213790894,0.063376948237419128,-0.057881876826286316,-0.050295896828174591,-0.063023313879966736,0.048539463430643082,0.017928451299667358,0.026103381067514420,0.014291386120021343,-0.033359240740537643,0.011381514370441437,0.061195395886898041,0.008135139942169189,0.014777550473809242,-0.016764154657721519,0.038629941642284393
